FANN_FLO_2.1
num_layers=3
learning_rate=0.300000
connection_rate=1.000000
network_type=0
learning_momentum=0.000000
training_algorithm=2
train_error_function=1
train_stop_function=0
cascade_output_change_fraction=0.010000
quickprop_decay=-0.000100
quickprop_mu=1.750000
rprop_increase_factor=1.200000
rprop_decrease_factor=0.500000
rprop_delta_min=0.000000
rprop_delta_max=50.000000
rprop_delta_zero=0.100000
cascade_output_stagnation_epochs=12
cascade_candidate_change_fraction=0.010000
cascade_candidate_stagnation_epochs=12
cascade_max_out_epochs=150
cascade_max_cand_epochs=150
cascade_num_candidate_groups=2
bit_fail_limit=8.00000000000000044409e-01
cascade_candidate_limit=1.00000000000000000000e+03
cascade_weight_multiplier=4.00000000000000022204e-01
cascade_activation_functions_count=10
cascade_activation_functions=3 5 7 8 10 11 14 15 16 17 
cascade_activation_steepnesses_count=4
cascade_activation_steepnesses=2.50000000000000000000e-01 5.00000000000000000000e-01 7.50000000000000000000e-01 1.00000000000000000000e+00 
layer_sizes=73 81 8 
scale_included=0
neurons (num_inputs, activation_function, activation_steepness)=(0, 0, 0.00000000000000000000e+00) (0, 0, 0.00000000000000000000e+00) (0, 0, 0.00000000000000000000e+00) (0, 0, 0.00000000000000000000e+00) (0, 0, 0.00000000000000000000e+00) (0, 0, 0.00000000000000000000e+00) (0, 0, 0.00000000000000000000e+00) (0, 0, 0.00000000000000000000e+00) (0, 0, 0.00000000000000000000e+00) (0, 0, 0.00000000000000000000e+00) (0, 0, 0.00000000000000000000e+00) (0, 0, 0.00000000000000000000e+00) (0, 0, 0.00000000000000000000e+00) (0, 0, 0.00000000000000000000e+00) (0, 0, 0.00000000000000000000e+00) (0, 0, 0.00000000000000000000e+00) (0, 0, 0.00000000000000000000e+00) (0, 0, 0.00000000000000000000e+00) (0, 0, 0.00000000000000000000e+00) (0, 0, 0.00000000000000000000e+00) (0, 0, 0.00000000000000000000e+00) (0, 0, 0.00000000000000000000e+00) (0, 0, 0.00000000000000000000e+00) (0, 0, 0.00000000000000000000e+00) (0, 0, 0.00000000000000000000e+00) (0, 0, 0.00000000000000000000e+00) (0, 0, 0.00000000000000000000e+00) (0, 0, 0.00000000000000000000e+00) (0, 0, 0.00000000000000000000e+00) (0, 0, 0.00000000000000000000e+00) (0, 0, 0.00000000000000000000e+00) (0, 0, 0.00000000000000000000e+00) (0, 0, 0.00000000000000000000e+00) (0, 0, 0.00000000000000000000e+00) (0, 0, 0.00000000000000000000e+00) (0, 0, 0.00000000000000000000e+00) (0, 0, 0.00000000000000000000e+00) (0, 0, 0.00000000000000000000e+00) (0, 0, 0.00000000000000000000e+00) (0, 0, 0.00000000000000000000e+00) (0, 0, 0.00000000000000000000e+00) (0, 0, 0.00000000000000000000e+00) (0, 0, 0.00000000000000000000e+00) (0, 0, 0.00000000000000000000e+00) (0, 0, 0.00000000000000000000e+00) (0, 0, 0.00000000000000000000e+00) (0, 0, 0.00000000000000000000e+00) (0, 0, 0.00000000000000000000e+00) (0, 0, 0.00000000000000000000e+00) (0, 0, 0.00000000000000000000e+00) (0, 0, 0.00000000000000000000e+00) (0, 0, 0.00000000000000000000e+00) (0, 0, 0.00000000000000000000e+00) (0, 0, 0.00000000000000000000e+00) (0, 0, 0.00000000000000000000e+00) (0, 0, 0.00000000000000000000e+00) (0, 0, 0.00000000000000000000e+00) (0, 0, 0.00000000000000000000e+00) (0, 0, 0.00000000000000000000e+00) (0, 0, 0.00000000000000000000e+00) (0, 0, 0.00000000000000000000e+00) (0, 0, 0.00000000000000000000e+00) (0, 0, 0.00000000000000000000e+00) (0, 0, 0.00000000000000000000e+00) (0, 0, 0.00000000000000000000e+00) (0, 0, 0.00000000000000000000e+00) (0, 0, 0.00000000000000000000e+00) (0, 0, 0.00000000000000000000e+00) (0, 0, 0.00000000000000000000e+00) (0, 0, 0.00000000000000000000e+00) (0, 0, 0.00000000000000000000e+00) (0, 0, 0.00000000000000000000e+00) (0, 0, 0.00000000000000000000e+00) (73, 4, 5.00000000000000000000e-01) (73, 4, 5.00000000000000000000e-01) (73, 4, 5.00000000000000000000e-01) (73, 4, 5.00000000000000000000e-01) (73, 4, 5.00000000000000000000e-01) (73, 4, 5.00000000000000000000e-01) (73, 4, 5.00000000000000000000e-01) (73, 4, 5.00000000000000000000e-01) (73, 4, 5.00000000000000000000e-01) (73, 4, 5.00000000000000000000e-01) (73, 4, 5.00000000000000000000e-01) (73, 4, 5.00000000000000000000e-01) (73, 4, 5.00000000000000000000e-01) (73, 4, 5.00000000000000000000e-01) (73, 4, 5.00000000000000000000e-01) (73, 4, 5.00000000000000000000e-01) (73, 4, 5.00000000000000000000e-01) (73, 4, 5.00000000000000000000e-01) (73, 4, 5.00000000000000000000e-01) (73, 4, 5.00000000000000000000e-01) (73, 4, 5.00000000000000000000e-01) (73, 4, 5.00000000000000000000e-01) (73, 4, 5.00000000000000000000e-01) (73, 4, 5.00000000000000000000e-01) (73, 4, 5.00000000000000000000e-01) (73, 4, 5.00000000000000000000e-01) (73, 4, 5.00000000000000000000e-01) (73, 4, 5.00000000000000000000e-01) (73, 4, 5.00000000000000000000e-01) (73, 4, 5.00000000000000000000e-01) (73, 4, 5.00000000000000000000e-01) (73, 4, 5.00000000000000000000e-01) (73, 4, 5.00000000000000000000e-01) (73, 4, 5.00000000000000000000e-01) (73, 4, 5.00000000000000000000e-01) (73, 4, 5.00000000000000000000e-01) (73, 4, 5.00000000000000000000e-01) (73, 4, 5.00000000000000000000e-01) (73, 4, 5.00000000000000000000e-01) (73, 4, 5.00000000000000000000e-01) (73, 4, 5.00000000000000000000e-01) (73, 4, 5.00000000000000000000e-01) (73, 4, 5.00000000000000000000e-01) (73, 4, 5.00000000000000000000e-01) (73, 4, 5.00000000000000000000e-01) (73, 4, 5.00000000000000000000e-01) (73, 4, 5.00000000000000000000e-01) (73, 4, 5.00000000000000000000e-01) (73, 4, 5.00000000000000000000e-01) (73, 4, 5.00000000000000000000e-01) (73, 4, 5.00000000000000000000e-01) (73, 4, 5.00000000000000000000e-01) (73, 4, 5.00000000000000000000e-01) (73, 4, 5.00000000000000000000e-01) (73, 4, 5.00000000000000000000e-01) (73, 4, 5.00000000000000000000e-01) (73, 4, 5.00000000000000000000e-01) (73, 4, 5.00000000000000000000e-01) (73, 4, 5.00000000000000000000e-01) (73, 4, 5.00000000000000000000e-01) (73, 4, 5.00000000000000000000e-01) (73, 4, 5.00000000000000000000e-01) (73, 4, 5.00000000000000000000e-01) (73, 4, 5.00000000000000000000e-01) (73, 4, 5.00000000000000000000e-01) (73, 4, 5.00000000000000000000e-01) (73, 4, 5.00000000000000000000e-01) (73, 4, 5.00000000000000000000e-01) (73, 4, 5.00000000000000000000e-01) (73, 4, 5.00000000000000000000e-01) (73, 4, 5.00000000000000000000e-01) (73, 4, 5.00000000000000000000e-01) (73, 4, 5.00000000000000000000e-01) (73, 4, 5.00000000000000000000e-01) (73, 4, 5.00000000000000000000e-01) (73, 4, 5.00000000000000000000e-01) (73, 4, 5.00000000000000000000e-01) (73, 4, 5.00000000000000000000e-01) (73, 4, 5.00000000000000000000e-01) (73, 4, 5.00000000000000000000e-01) (0, 0, 0.00000000000000000000e+00) (81, 6, 5.00000000000000000000e-01) (81, 6, 5.00000000000000000000e-01) (81, 6, 5.00000000000000000000e-01) (81, 6, 5.00000000000000000000e-01) (81, 6, 5.00000000000000000000e-01) (81, 6, 5.00000000000000000000e-01) (81, 6, 5.00000000000000000000e-01) (0, 6, 0.00000000000000000000e+00) 
connections (connected_to_neuron, weight)=(0, -9.47840068697257009944e+00) (1, -1.76148625032761003695e+01) (2, -3.78950928040836600985e+01) (3, -1.50000000000000000000e+03) (4, -1.50000000000000000000e+03) (5, -1.50000000000000000000e+03) (6, -1.50000000000000000000e+03) (7, -1.50000000000000000000e+03) (8, -4.98154877099907977822e+00) (9, -3.12765325133506877364e+00) (10, -3.57840007169347851246e+00) (11, -2.26686722446038890766e+00) (12, -2.36346489302722329029e+00) (13, -8.01575826362785792689e-01) (14, -7.43463636090341162266e-01) (15, -2.17885093362388282401e+00) (16, -6.22920170989101649184e+01) (17, -1.01663022957391540047e+01) (18, -7.57871270761108051239e-01) (19, -3.23284145526437294293e+00) (20, -6.04260370481723718683e+00) (21, -2.26625035515059281011e+00) (22, -4.95307400547123108936e+01) (23, -1.21900564494934258164e+01) (24, -1.48700795561646046394e+01) (25, -9.18812207429215321852e-01) (26, -9.80803641693882433117e+00) (27, -1.05774103201535858432e+01) (28, -2.24498381379732947494e+01) (29, -5.75257177456379942271e+00) (30, -6.17741151696491996859e+00) (31, -5.36520545960518369100e+00) (32, -2.82189577907437524118e+02) (33, -1.19611458707487088304e+01) (34, -2.92136722766060188405e+01) (35, -2.10969254573533895325e+01) (36, -1.36627846319144783394e+01) (37, -1.25248201853303520181e+01) (38, -8.74390757388212946921e+00) (39, -1.14707282858030534811e+01) (40, -2.41082635506144349336e+01) (41, -5.05686003368959302584e-01) (42, -6.51928910135346706411e-01) (43, -3.58140317999754875800e+00) (44, -7.37475077030302905712e+00) (45, -1.24281835769780668599e+00) (46, 2.88862974116530381252e+02) (47, -6.62040040430324516763e+00) (48, -2.91797134446135771668e+02) (49, -1.44443672735057582202e+01) (50, -1.01311005045138108471e+03) (51, -2.12460726002487234609e+01) (52, -1.79880483382735121722e+02) (53, -1.26376199367683739183e+03) (54, 6.84003019379912813314e-01) (55, -2.81966000151420928432e+02) (56, -1.23225058766195365934e+03) (57, -5.29096967696520550817e+02) (58, -5.51108495173691323998e+01) (59, -2.96758100783356120189e+01) (60, -6.59731882475568198743e+00) (61, -1.29471193087078290773e+03) (62, -5.40788368222647591210e+02) (63, -1.26703509802705298171e+03) (64, -1.50000000000000000000e+03) (65, -7.54844990824464048274e+02) (66, -1.31040518153863160933e+02) (67, -1.13326598054092286816e+01) (68, -1.01315624214576889273e+01) (69, -3.13813738764484391197e+01) (70, -7.05923156776055549244e+01) (71, -6.48342695263873793010e+02) (72, -9.24660899451773587998e+00) (0, -2.32909686288569339752e+01) (1, -4.25251285296524628166e+01) (2, -2.18576386269059298684e+02) (3, -1.50000000000000000000e+03) (4, -1.50000000000000000000e+03) (5, -1.50000000000000000000e+03) (6, -1.50000000000000000000e+03) (7, -1.50000000000000000000e+03) (8, -2.90917789411758782592e+01) (9, -2.04656807292948208499e+01) (10, -2.10025795628721461128e+01) (11, -1.32212501699587861026e+01) (12, -1.45528926854048261674e+01) (13, -4.86727674195793902356e+00) (14, -5.15277875854883404827e+00) (15, -1.32096419070407922192e+01) (16, -3.60009776885172868788e+02) (17, -5.97546508119025929773e+01) (18, -2.16015786528111020104e+00) (19, -1.93962351944840989404e+01) (20, -1.49643596695595118007e+01) (21, -5.54705923396716382712e+00) (22, -2.45225092126678532622e+02) (23, -7.07788327347560937142e+01) (24, -8.62729141420957290620e+01) (25, -6.25424233687290875849e+00) (26, -5.77576092688722013690e+01) (27, -6.18320737891685396903e+01) (28, -1.29640070837832155348e+02) (29, -3.35927119190321121778e+01) (30, -3.66782896290488409363e+01) (31, -3.10968919697334875707e+01) (32, -7.61222117205702716092e+02) (33, -7.19362477559402861971e+01) (34, -1.68780103571374411331e+02) (35, -1.22254751937271478823e+02) (36, -7.90656955034939841198e+01) (37, -7.24551114050452440551e+01) (38, -5.17139573040935260906e+01) (39, -6.67946961250600850235e+01) (40, -1.39497516701588409660e+02) (41, -3.25798112525535366046e+00) (42, -4.39969112347719626399e+00) (43, -2.10073157196440263306e+01) (44, -4.30311873806992650771e+01) (45, -7.47883281586295112220e+00) (46, 7.66113427961514503295e+02) (47, -3.84990491341807086201e+01) (48, -8.14233100785339615868e+02) (49, -8.36961976253489154942e+01) (50, -1.50000000000000000000e+03) (51, -1.23588465854142071976e+02) (52, -6.42911706266930764286e+02) (53, -1.50000000000000000000e+03) (54, 3.35948741806526429698e+00) (55, -7.58481125529659720996e+02) (56, -1.50000000000000000000e+03) (57, -1.03972149207241454860e+03) (58, -3.18347390833623308026e+02) (59, -1.71466276638489688366e+02) (60, -3.86645213809144792094e+01) (61, -1.50000000000000000000e+03) (62, -9.07563086193703497884e+02) (63, -1.50000000000000000000e+03) (64, -1.50000000000000000000e+03) (65, -1.19630744002772303247e+03) (66, -5.99468110754469535095e+02) (67, -6.59712366469638737954e+01) (68, -5.93777578532854377613e+01) (69, -1.81638617696260126877e+02) (70, -4.07787367981023578523e+02) (71, -1.13357060783247175095e+03) (72, -5.44447817964394786827e+01) (0, -2.32642070411214945125e+01) (1, -4.24857318781624826443e+01) (2, -9.10040835144275348512e+01) (3, -1.50000000000000000000e+03) (4, -1.50000000000000000000e+03) (5, -1.50000000000000000000e+03) (6, -1.50000000000000000000e+03) (7, -1.50000000000000000000e+03) (8, -1.21562674051727750424e+01) (9, -8.52679121527419425774e+00) (10, -8.77476220773813864184e+00) (11, -5.47183930397353979203e+00) (12, -5.95608045022570209426e+00) (13, -2.07533811688583558208e+00) (14, -2.13267068854174191017e+00) (15, -5.53869469472317987879e+00) (16, -1.49990955489488783314e+02) (17, -2.49711066706274600335e+01) (18, -2.30797767346725191118e+00) (19, -8.04767171088700195014e+00) (20, -1.50768496025211238276e+01) (21, -5.58894923905486784577e+00) (22, -1.19261737694372953911e+02) (23, -2.94846106411841439865e+01) (24, -3.60330838238646080640e+01) (25, -2.54038249547488792501e+00) (26, -2.41212448836959474363e+01) (27, -2.57306821994282728383e+01) (28, -5.40260608860195361558e+01) (29, -1.39665727267430561653e+01) (30, -1.51914010597442157291e+01) (31, -1.28894813045357299330e+01) (32, -5.22188741051907300061e+02) (33, -2.99444758813654203777e+01) (34, -7.03251928979312879164e+01) (35, -5.10137086788737192933e+01) (36, -3.30185607031257006838e+01) (37, -3.02188806398144578225e+01) (38, -2.14970282709123381437e+01) (39, -2.77886711570151447859e+01) (40, -5.80843063151660672361e+01) (41, -1.46239340087451408223e+00) (42, -1.88540538940172530680e+00) (43, -8.65409994009521987834e+00) (44, -1.79302015674589227956e+01) (45, -3.20239400136679464026e+00) (46, 5.30686057940843170400e+02) (47, -1.61603651190345729560e+01) (48, -5.44202268904196785115e+02) (49, -3.49047456024377353856e+01) (50, -1.26632622349433722775e+03) (51, -5.15377784182136267077e+01) (52, -4.19806550595092744516e+02) (53, -1.50000000000000000000e+03) (54, 1.31543516978017960284e+00) (55, -5.21059534096757488442e+02) (56, -1.46020385953047821204e+03) (57, -7.78257921773457383097e+02) (58, -1.32555530947746802894e+02) (59, -7.14138236171417730702e+01) (60, -1.60830864185509483377e+01) (61, -1.50000000000000000000e+03) (62, -7.71569281964747005986e+02) (63, -1.50000000000000000000e+03) (64, -1.50000000000000000000e+03) (65, -9.84180512151184416325e+02) (66, -3.14909810375802010185e+02) (67, -2.74648145894195607752e+01) (68, -2.47837907623239317445e+01) (69, -7.55899998529418724047e+01) (70, -1.69977412527952708388e+02) (71, -8.90459765307692237002e+02) (72, -2.27458049866024474284e+01) (0, 5.43891154065385194372e+02) (1, 1.39402558649063030316e+03) (2, -1.13651072249911266887e+00) (3, -1.50000000000000000000e+03) (4, -9.19005322676960986428e+02) (5, -1.50000000000000000000e+03) (6, -1.50000000000000000000e+03) (7, -1.50000000000000000000e+03) (8, 1.82848459524458689884e+02) (9, -6.06385713644586754612e+00) (10, -1.02179554200266841235e+03) (11, -1.48324945865074187168e+03) (12, -1.50000000000000000000e+03) (13, -1.48304428390681823657e+03) (14, -7.55117969815317024995e+00) (15, -1.43406132643040695740e+00) (16, -5.03605781557992884245e+01) (17, -7.62865587158714333782e+02) (18, -7.62989730827841412975e+02) (19, -1.50000000000000000000e+03) (20, -1.50000000000000000000e+03) (21, -1.16838476709129139408e+02) (22, 1.65777279957955201439e+01) (23, -2.17307172976470639014e+02) (24, -2.83399855814811473920e+02) (25, 4.18464801973507716237e-01) (26, 4.24655116578348812428e-01) (27, -3.70967086357243347461e-01) (28, -1.38238904409132477014e+01) (29, -6.27417365987133646144e+00) (30, -7.52922835114682470703e+02) (31, -1.25570551150760579162e+02) (32, -2.39256909972807507714e+00) (33, -2.21439310217733442698e-01) (34, 3.08825080381137151431e-01) (35, 4.41781043288394292823e-01) (36, 2.28350435078356173157e-01) (37, 3.85134859300486964706e-01) (38, -7.52927123000588494506e+02) (39, 3.64525472739264222444e-01) (40, -1.36765260695498545829e+03) (41, -3.57703664073129985468e+01) (42, -2.64774349904683106161e+02) (43, -6.83323601594681084848e-01) (44, -1.14864299122101187756e+00) (45, -1.50000000000000000000e+03) (46, -1.34078168433606037979e+03) (47, -1.47147966479712621890e+00) (48, -1.97300636876482182736e+00) (49, -7.59370554923201623865e+00) (50, -1.50000000000000000000e+03) (51, 1.64097856655466362019e-01) (52, -5.56968939439340005038e+00) (53, -1.50000000000000000000e+03) (54, -1.12774702773512740350e+03) (55, -7.45881531035026967835e-01) (56, -1.40000462259368327977e+03) (57, -1.17692597940384061417e+02) (58, -1.00340027355543475096e+03) (59, -3.74744571605909770895e+00) (60, -7.22642184156547262575e+00) (61, -1.00363929643860956276e+03) (62, -1.50000000000000000000e+03) (63, -1.20260256308853030305e+02) (64, -1.48431201746411170461e+03) (65, -7.63055518033976341030e+02) (66, -1.12772742475333484435e+03) (67, -6.57936604829472138078e+00) (68, -9.05654087628363129170e+01) (69, -1.00369400106725220212e+03) (70, -7.63371452003702756883e+02) (71, -7.01305440353835820133e+02) (72, 2.77311340866432498586e-01) (0, -2.32742668518874715744e+01) (1, -4.24232451196139095373e+01) (2, -9.10728314415828492656e+01) (3, -1.50000000000000000000e+03) (4, -1.50000000000000000000e+03) (5, -1.50000000000000000000e+03) (6, -1.50000000000000000000e+03) (7, -1.50000000000000000000e+03) (8, -1.20821834731629298432e+01) (9, -8.56174839447718483143e+00) (10, -9.48243594099312225865e+00) (11, -5.47847791247969251316e+00) (12, -6.00082325407487449098e+00) (13, -2.08477804837074209843e+00) (14, -2.21394375172119106665e+00) (15, -5.42579764843437484245e+00) (16, -1.50057999555356047949e+02) (17, -2.48519333648600806441e+01) (18, -2.26433782164171759632e+00) (19, -8.08665302724084966712e+00) (20, -1.50193769891421720075e+01) (21, -5.68911835866876991474e+00) (22, -1.19290613596539571972e+02) (23, -2.94729884303257954059e+01) (24, -3.58739571047343801524e+01) (25, -2.50887650786413107795e+00) (26, -2.40033277962204820710e+01) (27, -2.58250232155322088090e+01) (28, -5.39988029432981662126e+01) (29, -1.39522448659059534748e+01) (30, -1.52651994969565993898e+01) (31, -1.30722831754674437832e+01) (32, -5.22111926432521613606e+02) (33, -2.98870222427528915432e+01) (34, -7.02628156097406133540e+01) (35, -5.09523834511426159111e+01) (36, -3.30339187958972928527e+01) (37, -3.01336174414199327032e+01) (38, -2.15116928821649509018e+01) (39, -2.77299453177768882028e+01) (40, -5.82340002989547684820e+01) (41, -1.39897311166472726462e+00) (42, -1.83331815866962366535e+00) (43, -8.64853672475285861765e+00) (44, -1.78762212097340444927e+01) (45, -3.23157983381414215529e+00) (46, 5.30804518202474355348e+02) (47, -1.61734288271769699463e+01) (48, -5.44112281430969915164e+02) (49, -3.49426454919612652361e+01) (50, -1.26637826851883346535e+03) (51, -5.15903183344948814693e+01) (52, -4.19744619601249951302e+02) (53, -1.50000000000000000000e+03) (54, 1.47451746733750876928e+00) (55, -5.21038476386764727977e+02) (56, -1.46005327446655019230e+03) (57, -7.78180922391404806149e+02) (58, -1.32628814253764801379e+02) (59, -7.14359806133793568961e+01) (60, -1.61917591786415187016e+01) (61, -1.50000000000000000000e+03) (62, -7.71574240828936012804e+02) (63, -1.50000000000000000000e+03) (64, -1.50000000000000000000e+03) (65, -9.84123093727182777002e+02) (66, -3.14880343288868971285e+02) (67, -2.75698007869021495253e+01) (68, -2.48411091429080315152e+01) (69, -7.57751973801485263493e+01) (70, -1.70023672886197061871e+02) (71, -8.90466777669084990521e+02) (72, -2.26675822216190780978e+01) (0, -3.59017596025404550630e+00) (1, -4.03299356164342128750e+01) (2, -1.44553900306202964821e+00) (3, -1.50000000000000000000e+03) (4, -1.50000000000000000000e+03) (5, -1.50000000000000000000e+03) (6, -1.50000000000000000000e+03) (7, -1.50000000000000000000e+03) (8, -8.07943411669840627631e-01) (9, -5.06691322201558436156e-01) (10, -5.03520349746155893023e-01) (11, -1.70099636320703323511e-01) (12, -1.59800484832656963796e-01) (13, -2.73191746609730445883e-01) (14, 8.55545487454615061207e-02) (15, -1.49104922344993395811e+00) (16, -1.89115342354016457982e+00) (17, -1.65774289741726521541e+00) (18, 3.94745846491710503101e-02) (19, -4.61366285620322502670e-01) (20, -2.04860109064576967342e+00) (21, -8.06797060045769676151e-02) (22, -2.04385429391221258300e+01) (23, -2.05483531069266778246e+00) (24, -1.09026095539124301403e+00) (25, -1.06022480298392285381e-01) (26, -1.64333283941178565080e+00) (27, -4.26337858413090575738e+00) (28, -2.10552164441176472565e+01) (29, -4.00271266360920296989e+00) (30, -2.40434609806059640391e+00) (31, -7.53994732400163791830e-01) (32, -4.87757925853983849152e+01) (33, -9.09728518668953323179e-01) (34, -4.81679305420130354776e+00) (35, -3.51575636056789742057e+00) (36, -1.07625122433858555482e+00) (37, -2.02016581514595872093e+00) (38, -3.30736916508177491991e+00) (39, -1.81673372227485185881e+00) (40, -9.55593448897013431065e+00) (41, -1.06697568513217655450e-01) (42, -8.53924954074526398884e-02) (43, -1.29636440987481882381e+00) (44, -1.22788698024366826900e+00) (45, -4.82408453094624167790e+00) (46, 8.82423868470946715092e+00) (47, -1.10503486752829682693e+00) (48, -5.06051389570391734196e+01) (49, -5.68915494148459455204e+00) (50, -1.27124507212991807137e+03) (51, -3.65784272636500018550e+00) (52, -7.48630905013709053719e+01) (53, -1.50000000000000000000e+03) (54, 2.29363887935811927576e+00) (55, -4.88773157544452416801e+01) (56, -6.39142788808880709439e+02) (57, -5.27244965467460815489e+02) (58, -1.32576855784694856766e+02) (59, -1.21130646498625349494e+01) (60, -2.53057054036730866287e+00) (61, -1.50000000000000000000e+03) (62, -5.40419170879879629865e+02) (63, -1.26609664690158024314e+03) (64, -1.50000000000000000000e+03) (65, -2.81363314088751565123e+02) (66, -8.86718278786110090550e+02) (67, -9.27843375503587086683e-01) (68, -1.58800770382581646345e+00) (69, -7.48268239570849829079e+01) (70, -1.21901842606614483344e+01) (71, -8.70774741438989735798e+02) (72, -1.44770736279988843087e+00) (0, 2.32566647762749987294e+01) (1, 1.19316539234388926616e+02) (2, 1.21684563702790640605e+02) (3, 1.50000000000000000000e+03) (4, 1.50000000000000000000e+03) (5, 1.50000000000000000000e+03) (6, 1.50000000000000000000e+03) (7, 1.50000000000000000000e+03) (8, 5.54872167569557195321e+00) (9, 3.19377982225685475015e+00) (10, 5.21408576030069497165e+01) (11, 1.25704372724979793929e+03) (12, 1.50000000000000000000e+03) (13, 1.01099349413576396728e+03) (14, 2.72096385066806867314e+00) (15, 5.34264912804859726236e+00) (16, 2.34999835891735386895e+01) (17, 5.56499460094672393495e+00) (18, 1.01078398388156983856e+03) (19, 1.50000000000000000000e+03) (20, 1.50000000000000000000e+03) (21, 5.13559428854779298490e+01) (22, 2.24615944224321806288e+00) (23, 6.86338493650833747495e+00) (24, 2.45808698792759763307e+01) (25, 3.11145535002372408684e+00) (26, 4.89999426199904508650e+00) (27, 4.93703428084315198987e+00) (28, 5.55705325620904488915e+00) (29, 1.06525752615514104349e+01) (30, 5.05796414833938090538e+00) (31, 5.31636123569861638316e+01) (32, 1.14777429535474908562e+01) (33, 2.64872813662557327063e+00) (34, 1.39190897454852287041e+01) (35, 4.90768226018738218386e+00) (36, 1.16713331675622100647e+01) (37, 1.49317229012179915060e+01) (38, 4.67719700702543228488e+00) (39, 1.37621692419572649868e+01) (40, 4.00068458002843385657e+00) (41, 9.60825747658413042984e+00) (42, 4.14612615667399708741e+01) (43, 4.69379236403475719186e+00) (44, 4.47095831929440201691e+00) (45, 1.37465756616851053629e+00) (46, -6.70370793127830665981e+02) (47, 4.39429758729518837868e+00) (48, 1.29072500172479664116e+02) (49, 1.29503831140202674277e+00) (50, 1.50000000000000000000e+03) (51, 4.96239342687804096954e+00) (52, 1.23750256884105684918e+01) (53, 1.50000000000000000000e+03) (54, -2.48852317043153181686e+00) (55, 7.58196960744001202670e+00) (56, 1.84747491103374898103e+02) (57, 1.21871585915462446792e+02) (58, 2.85699067272226272962e+02) (59, 7.76341425008706220723e+00) (60, 9.64428286540545975924e+00) (61, 1.41662932771002914478e+02) (62, 8.15532588813111146919e+02) (63, 1.50000000000000000000e+03) (64, 1.10903324858057135316e+03) (65, 5.31740158339456581160e+00) (66, 6.04272720567652967816e+01) (67, 7.65441605426874094320e+00) (68, 3.85839448113615990366e+00) (69, 5.52951594143837041884e+02) (70, 1.50000000000000000000e+03) (71, 1.50000000000000000000e+03) (72, 5.68276449339662192983e+00) (0, -5.17281511134876197389e+01) (1, 6.35244556474190972040e+02) (2, -4.10799476451533109866e+01) (3, -1.50000000000000000000e+03) (4, -1.50000000000000000000e+03) (5, -1.50000000000000000000e+03) (6, -1.50000000000000000000e+03) (7, -1.50000000000000000000e+03) (8, -6.00488598618752718039e+01) (9, -6.92477601723296665170e+00) (10, -1.75866901914866247125e+01) (11, -6.40442816953184390627e+00) (12, -2.23323697862280257098e+00) (13, -1.43534375466368380181e-01) (14, -2.95798192783357372093e+00) (15, -4.77529424670084949867e+01) (16, -2.61782923054436835741e+01) (17, -2.42055691342653851450e+01) (18, 1.24279623508136705112e+00) (19, -1.40259043991323260059e+01) (20, -1.26448682304734987270e+01) (21, -7.83197595390199019505e+00) (22, 4.23275487252112014858e+00) (23, -2.92451814086933792325e+00) (24, -3.54890188493882376974e+01) (25, -1.78859139689525536987e+00) (26, -5.29182033853753210906e+01) (27, -2.49620512452471494669e+01) (28, -2.98638494462252253925e+02) (29, -1.32205655637927570467e+01) (30, -3.19392317295805412414e+01) (31, -1.22016780288089456974e+01) (32, -2.82793828079877130222e+02) (33, -3.26306002340835448194e+01) (34, -1.64070877376475465326e+02) (35, -5.00945909525504404769e+01) (36, -7.44145958183713673861e+01) (37, -6.90414768860207033185e+01) (38, -4.50503442736136605618e+01) (39, -1.42578698523016555555e+02) (40, -5.74623619157288487713e+01) (41, 6.67798975008358830507e+00) (42, -9.93250915549898416579e-01) (43, -7.99224930753868090250e+00) (44, -7.66567201715049151289e+00) (45, -5.83476929667014765357e+00) (46, 5.37400439186206767772e+02) (47, -1.36952059014255844716e+01) (48, -2.92033147156864060889e+02) (49, -6.65402287036496659312e+02) (50, -1.50000000000000000000e+03) (51, -5.35581450829932990132e+01) (52, -4.19911771525997664867e+02) (53, -1.50000000000000000000e+03) (54, 8.19733401534685945933e+00) (55, -2.22497126414184052123e+01) (56, -1.45931138728800101489e+03) (57, -1.02852914068179552487e+03) (58, -1.22217043605685512375e+03) (59, -3.12752274273352774969e+01) (60, -1.53369697492937113736e+01) (61, -1.50000000000000000000e+03) (62, -7.70811449121167129306e+02) (63, -1.27482632015406784376e+03) (64, -1.50000000000000000000e+03) (65, -9.83297343493075118204e+02) (66, -1.50000000000000000000e+03) (67, -1.49365229306076141569e+01) (68, -1.31091612988099477377e+01) (69, -1.68561925847485241547e+02) (70, -3.96920279202716642430e+02) (71, -6.50835328872664149458e+02) (72, -2.18507867824428849701e+01) (0, -2.76098976877807338326e+01) (1, -1.13159998159408542051e+03) (2, 5.08779845417038529831e+01) (3, 1.50000000000000000000e+03) (4, 1.50000000000000000000e+03) (5, 1.50000000000000000000e+03) (6, 1.41791535940170706454e+03) (7, 1.50000000000000000000e+03) (8, -3.99577826282131297830e+02) (9, 6.64784127305916072714e+00) (10, 1.19658016698794284594e+02) (11, 1.50000000000000000000e+03) (12, 1.50000000000000000000e+03) (13, 1.00961169895882744640e+03) (14, 2.08962468361066067146e+00) (15, 2.18946447803672805676e+00) (16, 4.96390099857160205232e+00) (17, 1.57802430283947292544e+00) (18, 1.18690484331326757683e+02) (19, 1.50000000000000000000e+03) (20, 1.25408109550527888132e+03) (21, 1.50000000000000000000e+03) (22, 9.47888481567339766798e+01) (23, 6.00824662913547626886e+02) (24, 2.89802529712059083522e+02) (25, 8.89188646207260369181e+00) (26, 3.88399045903730710805e+00) (27, 7.97572329296329598947e+02) (28, 1.18621731606215439569e+03) (29, 2.30673287932366577024e+02) (30, 5.35986637220955799421e+02) (31, 1.20206885019557873306e+02) (32, 1.13996857459827083403e+01) (33, 1.06782759056108500495e+00) (34, 1.97951377724346988529e+00) (35, 1.39789052450316364506e+00) (36, 2.25859031215700278850e+00) (37, 1.56050758696706415307e+00) (38, 1.47250135572633621450e+03) (39, 1.34234326267544679112e+00) (40, 5.91806578781656966726e+00) (41, 1.74928135932354216209e+01) (42, 3.65123814242682840359e+02) (43, 3.70143805322397767554e+01) (44, 2.53783230643134558591e+01) (45, 1.50000000000000000000e+03) (46, 1.49978501091612383789e+03) (47, 2.79086057318220737145e+00) (48, 2.30668730263072454534e+01) (49, 4.09790859744024160705e+00) (50, 1.50000000000000000000e+03) (51, 2.32164952074176644814e+00) (52, 9.11136348757350589267e+00) (53, 1.50000000000000000000e+03) (54, 1.50000000000000000000e+03) (55, 5.08944241539988517786e+00) (56, 1.49634565077999991445e+03) (57, 9.61100454918531887927e+00) (58, 1.25915119424345925836e+03) (59, 4.23254971992495665489e+00) (60, 2.26600277465970521007e+01) (61, 1.50000000000000000000e+03) (62, 1.50000000000000000000e+03) (63, 7.79436814490879669393e+02) (64, 1.50000000000000000000e+03) (65, 1.31856829428219793954e+03) (66, 1.50000000000000000000e+03) (67, 2.05811096391230030633e+00) (68, 1.08978844671286712043e+01) (69, 1.50000000000000000000e+03) (70, 1.50000000000000000000e+03) (71, 1.11480314365566323431e+03) (72, 2.28479769152858080972e+00) (0, -2.15924379971566331449e+01) (1, -4.13619140758554664217e+01) (2, -3.76870555475052029237e+01) (3, -1.50000000000000000000e+03) (4, -1.50000000000000000000e+03) (5, -1.50000000000000000000e+03) (6, -1.50000000000000000000e+03) (7, -1.50000000000000000000e+03) (8, -4.91004539352239621763e+00) (9, -3.39872960487320341372e+00) (10, -3.47209382082434814265e+00) (11, -1.65540548329005821060e+00) (12, -2.36451987624724813131e+00) (13, -6.24257856684596657004e-01) (14, -6.74642448855801601937e-01) (15, -4.24653189249435403241e+00) (16, -1.13929403817449426128e+01) (17, -1.02894600358074068680e+01) (18, -7.17107399122158595262e-01) (19, -3.19133212073176375512e+00) (20, -5.93159690172566289590e+00) (21, -1.29380442298959330572e+00) (22, -1.17913908786099653980e+02) (23, -1.21271495641447639713e+01) (24, -6.94688508924409475753e+00) (25, -9.46550390079991643688e-01) (26, -9.93172271805943651657e+00) (27, -1.04998815490936436845e+01) (28, -5.27907497723637320064e+01) (29, -1.01418722626613053706e+01) (30, -6.16688037053318804936e+00) (31, -5.29004027873153326311e+00) (32, -2.82600746371089371678e+02) (33, -1.23050169070659283221e+01) (34, -2.92343974568348947685e+01) (35, -2.11247189788198461713e+01) (36, -1.36285184922002642338e+01) (37, -1.24791155990468674020e+01) (38, -8.90123501566697861165e+00) (39, -1.13999987873853854126e+01) (40, -2.40412759188820928102e+01) (41, -3.91747209984544098038e-01) (42, -5.56293841351836015896e-01) (43, -3.55051055016533023689e+00) (44, -7.28825791092288888251e+00) (45, -1.14282021027546010217e+00) (46, 1.19440832310846914766e+02) (47, -6.48733941250295131908e+00) (48, -2.91655334054388390541e+02) (49, -1.43178550247530118611e+01) (50, -7.68131702760204348124e+02) (51, -2.13917392469460416748e+01) (52, -1.79943775024155570463e+02) (53, -1.26365064510689330746e+03) (54, 7.66203242238256421182e-01) (55, -2.82099464639179871028e+02) (56, -1.08146779880282019803e+03) (57, -5.28973493790482734767e+02) (58, -5.53292246673419469971e+01) (59, -2.95932825453200401000e+01) (60, -6.49602451321861895650e+00) (61, -1.50000000000000000000e+03) (62, -5.40665715527438464960e+02) (63, -1.50000000000000000000e+03) (64, -1.50000000000000000000e+03) (65, -7.54778103328163979313e+02) (66, -3.10704004904598093617e+02) (67, -1.13004299262594347653e+01) (68, -1.00540103576472787950e+01) (69, -3.16179830207357994709e+01) (70, -7.05280436858100614472e+01) (71, -1.11192402463733560580e+03) (72, -9.24042597038618218619e+00) (0, -2.32269123283687228820e+01) (1, -4.24548162603177843266e+01) (2, -9.10933492705766099107e+01) (3, -1.50000000000000000000e+03) (4, -1.50000000000000000000e+03) (5, -1.50000000000000000000e+03) (6, -1.50000000000000000000e+03) (7, -1.50000000000000000000e+03) (8, -1.21256444411091450775e+01) (9, -8.65062653397866831995e+00) (10, -8.74323164792594376138e+00) (11, -5.58102214469608348679e+00) (12, -6.01703074033492324446e+00) (13, -1.99097868557271695522e+00) (14, -2.18576969556112787885e+00) (15, -5.54011385665638123044e+00) (16, -1.49939484299032898207e+02) (17, -2.49708156101530782678e+01) (18, -2.30324134983515538266e+00) (19, -8.12527867457151486974e+00) (20, -1.49143134754934614250e+01) (21, -5.54269748725570465808e+00) (22, -1.19218238204875575548e+02) (23, -2.94363581772174995876e+01) (24, -3.60527531086429817719e+01) (25, -2.69154148368856205309e+00) (26, -2.39942099100330779038e+01) (27, -2.58198608755183443009e+01) (28, -5.40796982706038917854e+01) (29, -1.40180513562312327736e+01) (30, -1.51845645945481049210e+01) (31, -1.29058239763673192613e+01) (32, -5.22209304063550689534e+02) (33, -3.00269051723183864055e+01) (34, -7.03840874044400663934e+01) (35, -5.10538863349718354812e+01) (36, -3.30202802698653385960e+01) (37, -3.02393012403132317445e+01) (38, -2.14673174239821804576e+01) (39, -2.77597677596911580622e+01) (40, -5.82285622344624513858e+01) (41, -1.40115199403902690456e+00) (42, -1.96568483280028272198e+00) (43, -8.65930614652059205127e+00) (44, -1.79846007322905485637e+01) (45, -7.54179071514221632810e+00) (46, 5.30679432572577752580e+02) (47, -1.61632930934103278275e+01) (48, -5.44135356291253174277e+02) (49, -3.49066346470710797689e+01) (50, -1.26640675843239750975e+03) (51, -5.15083296812226549832e+01) (52, -4.19762187888020037008e+02) (53, -1.50000000000000000000e+03) (54, 1.39313637073779483799e+00) (55, -5.21034840674463225696e+02) (56, -1.46019205396427446431e+03) (57, -7.78253185601723998843e+02) (58, -1.32620016201449431037e+02) (59, -7.14556554355224449182e+01) (60, -1.61298288763057442452e+01) (61, -1.50000000000000000000e+03) (62, -7.71627456454959201437e+02) (63, -1.50000000000000000000e+03) (64, -1.50000000000000000000e+03) (65, -9.84097581144925243279e+02) (66, -3.14817293498411345354e+02) (67, -2.74066122326384586927e+01) (68, -2.47212803566566527991e+01) (69, -7.56677721315081157627e+01) (70, -1.69890306773754502956e+02) (71, -8.90341510818248139003e+02) (72, -2.27623358583332056071e+01) (0, -5.15923600572824270216e+01) (1, 6.35325206427051966784e+02) (2, -4.11045282316624280838e+01) (3, -1.50000000000000000000e+03) (4, -1.50000000000000000000e+03) (5, -1.50000000000000000000e+03) (6, -1.50000000000000000000e+03) (7, -1.50000000000000000000e+03) (8, -5.99982347561981015360e+01) (9, -6.83995270177536429657e+00) (10, -1.75504488720091949006e+01) (11, -6.49121865836787215187e+00) (12, -2.21285134640012559615e+00) (13, 6.42575489301599328540e-03) (14, -2.90438817152153516687e+00) (15, -4.77165254128259519462e+01) (16, -2.61538908189738563692e+01) (17, -2.41940697247164564487e+01) (18, 1.26558753492428044396e+00) (19, -1.40235682108780270738e+01) (20, -1.27093773923445620966e+01) (21, -7.85645676698401285165e+00) (22, 4.16275382567732066263e+00) (23, -2.95897185509036431128e+00) (24, -3.55583478391373262184e+01) (25, -1.85028992041963658011e+00) (26, -5.29613425496091139166e+01) (27, -2.50166145120059688622e+01) (28, -2.98508418619848271192e+02) (29, -1.32581469287907012244e+01) (30, -3.18931813895159237404e+01) (31, -1.21358111331799740640e+01) (32, -2.82750759491921030531e+02) (33, -3.26091304805280444157e+01) (34, -1.64064264148838134361e+02) (35, -5.01075886812371820156e+01) (36, -7.44607657199535282189e+01) (37, -6.91064645344293779772e+01) (38, -4.48697992743823377282e+01) (39, -1.42574243318921531909e+02) (40, -5.74425262486799184103e+01) (41, 6.69477606590524132457e+00) (42, -1.07558620029090157288e+00) (43, -7.95202800826707800752e+00) (44, -7.69892557394968868323e+00) (45, -5.86351082509911236684e+00) (46, 5.37477077539754077407e+02) (47, -1.37040579717549544370e+01) (48, -2.92050389275744066708e+02) (49, -6.65302857383106470479e+02) (50, -1.50000000000000000000e+03) (51, -5.36398963637443983998e+01) (52, -4.19836822685782635745e+02) (53, -1.50000000000000000000e+03) (54, 8.08112902037473368466e+00) (55, -2.22440927908593231166e+01) (56, -1.45924960273746410166e+03) (57, -1.02848848483802112241e+03) (58, -1.22221937947314791018e+03) (59, -3.12833670373745675874e+01) (60, -1.53338952705173383606e+01) (61, -1.50000000000000000000e+03) (62, -7.70753721835670603468e+02) (63, -1.27478017708742845571e+03) (64, -1.50000000000000000000e+03) (65, -9.83233002979848151881e+02) (66, -1.50000000000000000000e+03) (67, -1.57498747883936296432e+01) (68, -1.38955670676158788979e+01) (69, -1.68548235513188416235e+02) (70, -3.96943417222783409670e+02) (71, -6.50816140340796891905e+02) (72, -2.18203101323244048615e+01) (0, -2.33234649853739526293e+01) (1, -4.24749187236280363322e+01) (2, -9.11583025322270117385e+01) (3, -1.50000000000000000000e+03) (4, -1.50000000000000000000e+03) (5, -1.50000000000000000000e+03) (6, -1.50000000000000000000e+03) (7, -1.50000000000000000000e+03) (8, -1.20368723231848715471e+01) (9, -8.53494445168053772477e+00) (10, -8.75848348889738126388e+00) (11, -5.53066978717663015885e+00) (12, -6.00562105701187221030e+00) (13, -2.02527907513154481478e+00) (14, -2.19405841342019813922e+00) (15, -5.59638492531537501407e+00) (16, -1.49924252172670549044e+02) (17, -2.49032848276504736873e+01) (18, -2.21664780517921267133e+00) (19, -8.14224485523456742442e+00) (20, -1.50784529535196352157e+01) (21, -5.72603601029103081999e+00) (22, -1.19270062283052851626e+02) (23, -2.94028287333309279461e+01) (24, -3.59919444683222593540e+01) (25, -2.62055771754279920316e+00) (26, -2.41266118076222255695e+01) (27, -2.57160084617730824164e+01) (28, -5.40054852809388776791e+01) (29, -1.40218427361231867678e+01) (30, -1.52722142310797206477e+01) (31, -1.29281636437075331258e+01) (32, -5.22233197906659825094e+02) (33, -2.99795080675201788267e+01) (34, -7.03017140453689961532e+01) (35, -5.09784416885061375524e+01) (36, -3.30722125680999283759e+01) (37, -3.01108083193223023954e+01) (38, -2.14901469196927550342e+01) (39, -2.77229279400014689827e+01) (40, -5.81843872340604946203e+01) (41, -1.43923333072103831753e+00) (42, -1.87849265559114031454e+00) (43, -8.80372146577581560223e+00) (44, -1.78569824555511580400e+01) (45, -3.25686899243466587706e+00) (46, 5.30678746187550586910e+02) (47, -1.60204426903085810352e+01) (48, -5.44188922052380803507e+02) (49, -3.48207274874422552102e+01) (50, -1.26648087421293894295e+03) (51, -5.15260349173961600400e+01) (52, -4.19659619248446290385e+02) (53, -1.50000000000000000000e+03) (54, 1.40896057854399758824e+00) (55, -5.21071463397548995999e+02) (56, -1.46004701005386732504e+03) (57, -7.78169763288619833475e+02) (58, -1.32552786510789928798e+02) (59, -7.14363985384304811532e+01) (60, -1.60501979430004091398e+01) (61, -1.50000000000000000000e+03) (62, -7.71630539225114375768e+02) (63, -1.50000000000000000000e+03) (64, -1.50000000000000000000e+03) (65, -9.84018290556009219472e+02) (66, -3.14886111764729605511e+02) (67, -2.74315673720400923230e+01) (68, -2.47134968496368720992e+01) (69, -7.57594198935369576020e+01) (70, -1.69878422093559578343e+02) (71, -8.90489552313899707769e+02) (72, -2.26920649540638237340e+01) (0, -5.58860398601196948221e+01) (1, -1.00225511669599484321e+02) (2, -2.18553051344021156410e+02) (3, -1.50000000000000000000e+03) (4, -1.50000000000000000000e+03) (5, -1.50000000000000000000e+03) (6, -1.50000000000000000000e+03) (7, -1.50000000000000000000e+03) (8, -2.90944544966759011118e+01) (9, -2.05511915788453514153e+01) (10, -2.28573973059547803643e+01) (11, -1.32131764539728671082e+01) (12, -1.44068886645760105836e+01) (13, -4.99827768338723910091e+00) (14, -5.18562300456519054137e+00) (15, -1.31954916190602027370e+01) (16, -3.59889505870634877738e+02) (17, -5.97486529222311517628e+01) (18, -5.35313572803052917237e+00) (19, -1.94883001518728136148e+01) (20, -3.59504308515792345702e+01) (21, -1.35247364554390916425e+01) (22, -2.45408835669800424739e+02) (23, -7.07462808353706122944e+01) (24, -8.62112925827906622089e+01) (25, -2.54434835697741412730e+00) (26, -2.40964018078268189527e+01) (27, -2.58373567594077790943e+01) (28, -5.39974013178899099330e+01) (29, -3.35946076195486043048e+01) (30, -1.52637172677203505344e+01) (31, -3.10770235504905656398e+01) (32, -7.61251076170389069375e+02) (33, -7.18397048273445619770e+01) (34, -1.68830809629753019863e+02) (35, -5.10538541902795657279e+01) (36, -7.90340371966768913126e+01) (37, -7.23047474454815102263e+01) (38, -2.15700955967028207283e+01) (39, -6.67657133737430257270e+01) (40, -1.39632663594648562366e+02) (41, -1.45883523216809463108e+00) (42, -1.95072446301648771971e+00) (43, -8.80348720033311238353e+00) (44, -4.30877784747101983953e+01) (45, -8.18761428538985480685e-01) (46, 2.88742662944703454286e+02) (47, -3.86353692167270281743e+01) (48, -8.14222890674288464652e+02) (49, -3.47756775553826074088e+01) (50, -1.26641689126686378586e+03) (51, -1.23591532744036328495e+02) (52, -4.19741494845768670530e+02) (53, -1.50000000000000000000e+03) (54, 1.39120589621910140110e+00) (55, -7.58591832261868830756e+02) (56, -1.50000000000000000000e+03) (57, -1.03966979324399358120e+03) (58, -1.32644170921612840175e+02) (59, -1.71344002121634900959e+02) (60, -3.88147182559904280197e+01) (61, -1.50000000000000000000e+03) (62, -9.07420943257605699728e+02) (63, -1.50000000000000000000e+03) (64, -1.50000000000000000000e+03) (65, -1.19621600315000387127e+03) (66, -3.14820281401905504026e+02) (67, -6.59168123557007277213e+01) (68, -5.93359570190759484376e+01) (69, -7.57735382077229786546e+01) (70, -4.07903960941423633813e+02) (71, -1.13366395389122931192e+03) (72, -5.44441436600691730519e+01) (0, -2.30437435178272629344e+01) (1, -4.22682207927600970265e+01) (2, -2.18520477624399347860e+02) (3, -1.50000000000000000000e+03) (4, -1.50000000000000000000e+03) (5, -1.50000000000000000000e+03) (6, -1.50000000000000000000e+03) (7, -1.50000000000000000000e+03) (8, -2.91179528740437305601e+01) (9, -8.29497224944325672880e+00) (10, -2.11444377972867236792e+01) (11, -5.20462593865396794257e+00) (12, -5.69477647490354499382e+00) (13, -4.94117508046800857358e+00) (14, -1.99437593947484170798e+00) (15, -5.22569189098025344009e+00) (16, -3.59923787678538587897e+02) (17, -5.96319391022361671162e+01) (18, -5.34671621642294958576e+00) (19, -7.77537610516350863321e+00) (20, -1.46741374004085667337e+01) (21, -1.35770740822142617077e+01) (22, -2.45334703065847634207e+02) (23, -2.91904615644258313978e+01) (24, -8.63977998497220056606e+01) (25, -2.39089661711557255330e+00) (26, -2.37852949727281490766e+01) (27, -2.55379823211536240990e+01) (28, -5.37931679651731471381e+01) (29, -1.37239688745328045627e+01) (30, -1.49980630450992631353e+01) (31, -3.11942404085492377419e+01) (32, -7.61272261647689447273e+02) (33, -6.99556561057658399250e+01) (34, -1.68781210018092934888e+02) (35, -5.07110752699117668385e+01) (36, -7.91232905941752164836e+01) (37, -7.23240311160489852682e+01) (38, -5.15187572919133174310e+01) (39, -6.66784651457220860493e+01) (40, -5.79395693674733323064e+01) (41, -1.17990328533642174769e+00) (42, -4.50564830410697325647e+00) (43, -8.34805903049137221217e+00) (44, -1.76546539736187497738e+01) (45, -7.57845025061594412819e+00) (46, 5.31005101637891812061e+02) (47, -3.86336164913642150509e+01) (48, -5.43911737621186489378e+02) (49, -8.36098420621128042285e+01) (50, -1.50000000000000000000e+03) (51, -1.23575149326468959998e+02) (52, -6.42783590630401590715e+02) (53, -1.50000000000000000000e+03) (54, 3.40059421382486570806e+00) (55, -5.20627562833140700604e+02) (56, -1.50000000000000000000e+03) (57, -1.03964706463892480315e+03) (58, -3.18181064695375368956e+02) (59, -1.71427600984817104290e+02) (60, -3.87971461129860131223e+01) (61, -1.50000000000000000000e+03) (62, -7.71244569490386538746e+02) (63, -1.50000000000000000000e+03) (64, -1.50000000000000000000e+03) (65, -1.19636721925967776770e+03) (66, -5.99546123690424792585e+02) (67, -6.59288725380495179706e+01) (68, -5.93064567963371089832e+01) (69, -1.81721430623015407946e+02) (70, -4.07828772895751455962e+02) (71, -8.90199365774567354492e+02) (72, -5.44742529454291428692e+01) (0, -2.32115691334989193706e+01) (1, -4.26063428548750522395e+01) (2, -9.10541112241616445999e+01) (3, -1.50000000000000000000e+03) (4, -1.50000000000000000000e+03) (5, -1.50000000000000000000e+03) (6, -1.50000000000000000000e+03) (7, -1.50000000000000000000e+03) (8, -1.20846640329959882365e+01) (9, -8.53735993972494178195e+00) (10, -9.49529116530976757815e+00) (11, -5.45364843494481021935e+00) (12, -6.12554238189708133433e+00) (13, -2.00687851183709575764e+00) (14, -2.23123063527336773504e+00) (15, -5.43372918992465514521e+00) (16, -1.49956169749172346428e+02) (17, -2.48309909607062522241e+01) (18, -5.23718135606478796262e+00) (19, -8.20769762849567818819e+00) (20, -3.59682008589104569296e+01) (21, -1.34711525560590654749e+01) (22, -1.19321804412386057948e+02) (23, -2.94629469485471524592e+01) (24, -3.59215251551906931127e+01) (25, -2.55808510457362991986e+00) (26, -2.40282801341106342363e+01) (27, -2.57019364576027840030e+01) (28, -5.40851684099392855387e+01) (29, -1.39605042322023251700e+01) (30, -1.51921264669083928567e+01) (31, -1.28959509208329095031e+01) (32, -5.22103283531098895764e+02) (33, -2.99952289981705746413e+01) (34, -7.03786420413588871270e+01) (35, -5.08774926787978358789e+01) (36, -3.30539088838682317828e+01) (37, -3.00962150323856718614e+01) (38, -2.14236982313130965849e+01) (39, -2.77524159655808908553e+01) (40, -5.81722094352614007562e+01) (41, -1.32383368512951604679e+00) (42, -1.83095932884561052312e+00) (43, -8.71146498888169773522e+00) (44, -1.79231822496454178406e+01) (45, -3.24650788754230656963e+00) (46, 5.30733658396855162209e+02) (47, -1.61185600609046240095e+01) (48, -5.44106267080544284909e+02) (49, -3.48848043736055615227e+01) (50, -1.26644444435372270163e+03) (51, -5.15603336728563732549e+01) (52, -4.19797037764704725760e+02) (53, -1.50000000000000000000e+03) (54, 1.31454360777442813557e+00) (55, -5.20938462597695661316e+02) (56, -1.46019984971399549067e+03) (57, -7.78165848585877824917e+02) (58, -1.32605713709839619696e+02) (59, -7.14689213245787158257e+01) (60, -1.61849447394108914011e+01) (61, -1.50000000000000000000e+03) (62, -7.71630849288387935303e+02) (63, -1.50000000000000000000e+03) (64, -1.50000000000000000000e+03) (65, -9.84095528615272769457e+02) (66, -3.14789995175777676195e+02) (67, -2.74018240532440344737e+01) (68, -2.47761416220568726487e+01) (69, -7.55968546162054053639e+01) (70, -1.69878166800342938814e+02) (71, -8.90340019284540289846e+02) (72, -2.26141000341209839064e+01) (0, -5.58382512401575255012e+01) (1, -1.00183722166233138751e+02) (2, -2.18541286218172587041e+02) (3, -1.50000000000000000000e+03) (4, -1.50000000000000000000e+03) (5, -1.50000000000000000000e+03) (6, -1.50000000000000000000e+03) (7, -1.50000000000000000000e+03) (8, -2.91443768823002855584e+01) (9, -2.04446856377075896205e+01) (10, -2.10763702001647175166e+01) (11, -1.32784111097142396574e+01) (12, -1.43947996942078191296e+01) (13, -4.97007057337779123429e+00) (14, -5.20369731754751629893e+00) (15, -1.31794879459499902907e+01) (16, -3.59914225959581983716e+02) (17, -5.97992500213617077520e+01) (18, -5.27187884825743591222e+00) (19, -1.94858596756051696275e+01) (20, -3.60013380139833998328e+01) (21, -1.34483119964224044907e+01) (22, -2.45394955559061543227e+02) (23, -7.06744260541511835072e+01) (24, -8.62387515378954390144e+01) (25, -6.32740894649420404505e+00) (26, -5.77261854410500845347e+01) (27, -6.17332456824399216089e+01) (28, -1.29544998985046476037e+02) (29, -3.36358645842769377055e+01) (30, -3.65920103863018724155e+01) (31, -3.11853562107570638773e+01) (32, -7.61250543631751042994e+02) (33, -7.18148684623066060340e+01) (34, -1.68680992562277879188e+02) (35, -1.22295540354816267836e+02) (36, -7.90955530763863947641e+01) (37, -7.24141256871826044517e+01) (38, -5.15406914314099111607e+01) (39, -6.66771516361898193281e+01) (40, -1.39635535895211916113e+02) (41, -3.35850589284454947858e+00) (42, -4.53930757734261103309e+00) (43, -2.09872419219773895804e+01) (44, -4.30345059766349464780e+01) (45, -7.66936782872704903014e+00) (46, 7.66163655720179008313e+02) (47, -3.86068168075988964461e+01) (48, -8.14268235004589541859e+02) (49, -8.36561463913561738082e+01) (50, -1.50000000000000000000e+03) (51, -1.23687784236741549648e+02) (52, -6.42901132876833230512e+02) (53, -1.50000000000000000000e+03) (54, 3.36457571616383299684e+00) (55, -7.58636389538248977260e+02) (56, -1.50000000000000000000e+03) (57, -1.03968497994658673633e+03) (58, -3.17072835459903672017e+02) (59, -1.71411626976380233600e+02) (60, -3.86711619203317553684e+01) (61, -1.50000000000000000000e+03) (62, -9.07396900769730450520e+02) (63, -1.50000000000000000000e+03) (64, -1.50000000000000000000e+03) (65, -1.19624214359754068937e+03) (66, -5.99543966137479856116e+02) (67, -6.60498715883165488094e+01) (68, -5.94714757083137683935e+01) (69, -1.81541207206586790335e+02) (70, -4.07748458433412849899e+02) (71, -1.13360234487814318527e+03) (72, -5.44478960744484794532e+01) (0, -2.33649139473761842112e+01) (1, -4.24973951261674400826e+01) (2, -9.10105163883722099172e+01) (3, -1.50000000000000000000e+03) (4, -1.50000000000000000000e+03) (5, -1.50000000000000000000e+03) (6, -1.50000000000000000000e+03) (7, -1.50000000000000000000e+03) (8, -1.20678601011144426280e+01) (9, -8.55248573018871383056e+00) (10, -8.68557307289539970441e+00) (11, -5.55068758395035999342e+00) (12, -5.97668666713478557995e+00) (13, -2.14141299063239332057e+00) (14, -2.25194115919477599874e+00) (15, -5.52278878571157871846e+00) (16, -1.49913466262115775862e+02) (17, -2.48357274760976665107e+01) (18, -2.29871230387292513342e+00) (19, -8.14033914560795679449e+00) (20, -1.49752849869985809050e+01) (21, -5.61475083492604198909e+00) (22, -1.19203182494480813602e+02) (23, -2.95177495985525624178e+01) (24, -3.59347407997658407908e+01) (25, -2.56046223693541641353e+00) (26, -2.40481016931124607083e+01) (27, -2.57349286887295427562e+01) (28, -5.40072310799624730748e+01) (29, -1.39251665817380327894e+01) (30, -1.51987618270544881938e+01) (31, -1.29713584046402274907e+01) (32, -5.22158998154907180833e+02) (33, -2.99582695225272459538e+01) (34, -7.02983119111941192614e+01) (35, -5.09454012712143153863e+01) (36, -3.29465548887632948549e+01) (37, -3.01183757853923204095e+01) (38, -2.15501051214879453255e+01) (39, -2.78282580414815079450e+01) (40, -5.82094959787318231292e+01) (41, -1.42628111660738232658e+00) (42, -1.80384055086467509632e+00) (43, -8.79989582047692309175e+00) (44, -1.79601641569383509989e+01) (45, -3.24009963338964723789e+00) (46, 5.30756167972453340553e+02) (47, -1.61128384811410079180e+01) (48, -5.44104595341782896867e+02) (49, -3.48253702012332766458e+01) (50, -1.26637136429107135882e+03) (51, -5.15385402432575148168e+01) (52, -4.19752976789852596085e+02) (53, -1.50000000000000000000e+03) (54, 1.48153439044124279889e+00) (55, -5.20907617267418572737e+02) (56, -1.46021052486887401756e+03) (57, -7.78218679365193111153e+02) (58, -1.32607860610689385794e+02) (59, -7.14016591493873420404e+01) (60, -1.62024378682618461767e+01) (61, -1.50000000000000000000e+03) (62, -7.71638994597097052974e+02) (63, -1.50000000000000000000e+03) (64, -1.50000000000000000000e+03) (65, -9.84023343793817048208e+02) (66, -3.14931111520853448837e+02) (67, -2.74662928464718376631e+01) (68, -2.47261175536078212644e+01) (69, -7.56643778485689182389e+01) (70, -1.70018477669471366198e+02) (71, -8.90327281759561742547e+02) (72, -2.25840706949821274918e+01) (0, -2.28876967914619235955e+01) (1, -1.73861545913923905005e+01) (2, -2.18548238786326663785e+02) (3, -1.50000000000000000000e+03) (4, -1.50000000000000000000e+03) (5, -1.50000000000000000000e+03) (6, -1.50000000000000000000e+03) (7, -1.50000000000000000000e+03) (8, -2.90725278079462761127e+01) (9, -2.05280043062491799333e+01) (10, -2.10260587839587849146e+01) (11, -1.32148600578770185621e+01) (12, -5.77749396279333371496e+00) (13, -4.88891382680171027175e+00) (14, -5.15082142058886915947e+00) (15, -1.31486466110468782631e+01) (16, -3.60035216116929007057e+02) (17, -5.96791119492116877154e+01) (18, -5.25853064229841038468e+00) (19, -1.94156320909677972963e+01) (20, -1.46165510530769182651e+01) (21, -1.35081715431226658808e+01) (22, -2.45296550759776692985e+02) (23, -7.06902484722347708157e+01) (24, -8.62397274265980939845e+01) (25, -6.29347294034401816276e+00) (26, -5.76919837906846169062e+01) (27, -6.18017448035060965594e+01) (28, -1.29651373848024718427e+02) (29, -3.35889254089328446184e+01) (30, -3.66304801681360530097e+01) (31, -3.12049231619025455586e+01) (32, -7.61279297763116574060e+02) (33, -7.18602908122948633718e+01) (34, -1.68807343350325055553e+02) (35, -1.22377478217200405197e+02) (36, -7.91422064147651127541e+01) (37, -7.24455885704831388239e+01) (38, -5.16163788525334084056e+01) (39, -6.66519559002145172144e+01) (40, -1.39550317443980645749e+02) (41, -3.38388189776211234516e+00) (42, -4.45056078953009759402e+00) (43, -2.10183513596942823654e+01) (44, -4.29787252350695609948e+01) (45, -7.52774514386275761524e+00) (46, 7.66163387617365174265e+02) (47, -3.86720262232874034680e+01) (48, -8.14206474250648511770e+02) (49, -8.36430662881177937606e+01) (50, -1.50000000000000000000e+03) (51, -1.23714030722246747018e+02) (52, -6.42947912320295131394e+02) (53, -1.50000000000000000000e+03) (54, 3.32250681248191748196e+00) (55, -5.20633812099910414872e+02) (56, -1.45985170877842324444e+03) (57, -1.03969284719981033049e+03) (58, -3.18320081185734466089e+02) (59, -1.71380642864881423293e+02) (60, -3.86320899982109793314e+01) (61, -1.50000000000000000000e+03) (62, -9.07385483609284051454e+02) (63, -1.26667887736696502543e+03) (64, -1.50000000000000000000e+03) (65, -1.19635707722523466146e+03) (66, -5.99415586206221632892e+02) (67, -2.71321073832380150748e+01) (68, -2.44795435803980545586e+01) (69, -1.81688514699432403177e+02) (70, -4.07770062617982375741e+02) (71, -6.48107597078975686600e+02) (72, -5.44205795691382903101e+01) (0, -1.88373897526819855663e+00) (1, 1.10960570188808696912e+03) (2, -4.87394970547811894335e+01) (3, -1.50000000000000000000e+03) (4, -1.50000000000000000000e+03) (5, -1.50000000000000000000e+03) (6, -1.50000000000000000000e+03) (7, -1.50000000000000000000e+03) (8, -5.98335225078319652425e+01) (9, -6.35275061271735985713e+00) (10, -4.75265255089793754451e+01) (11, -3.89800880634550082959e+02) (12, -5.17408398956933751833e+02) (13, -6.46362726364270656632e+01) (14, -1.04238278378984405848e+00) (15, -9.49471943446299349034e+00) (16, -6.41066522607802085076e+01) (17, -1.32666922243845419871e+02) (18, -5.24522331483725920975e+01) (19, -1.50000000000000000000e+03) (20, -1.49111342020330835112e+03) (21, -3.55479869745564144523e+02) (22, -2.41502505617443887331e+02) (23, -6.75947501034125792785e+01) (24, -8.40074629895951545677e+01) (25, -1.95077352582809360193e+00) (26, -2.22137873137513608413e+01) (27, -1.02308496376026063501e+01) (28, -2.22853634785307690436e+01) (29, -6.33369001040575962946e+00) (30, -7.68333142209640662657e+00) (31, -6.68080072060210916618e+00) (32, -5.19819790113758699590e+02) (33, -1.23196538180060510825e+01) (34, -7.07224397281010084271e+01) (35, -1.86306508356352940048e+00) (36, -1.36253877373343978974e+01) (37, -2.88975295127105908932e+01) (38, -9.79051400170510710552e+00) (39, -1.14990155935838451740e+01) (40, -5.73995552845455989655e+01) (41, 1.71917088513535848415e-01) (42, -3.83867400955501592019e-01) (43, -6.93095602882117045596e+00) (44, -8.22168017131290440602e+00) (45, -6.55710336544139349435e-01) (46, 1.20983594348972616217e+02) (47, -6.67228324409297535169e+00) (48, -2.92107860577947178626e+02) (49, -3.34795016053608378570e+01) (50, -1.50000000000000000000e+03) (51, -4.97821936457935692033e+01) (52, -7.65314522146755109588e+01) (53, -1.50000000000000000000e+03) (54, 3.96794303220618171935e+00) (55, -5.21371123982012932174e+02) (56, -1.50000000000000000000e+03) (57, -5.29238924941503228183e+02) (58, -1.32071880229369440940e+02) (59, -3.09369820830481927487e+01) (60, -8.23309454124283845999e+00) (61, -1.50000000000000000000e+03) (62, -9.09052066256175521630e+02) (63, -1.50000000000000000000e+03) (64, -1.50000000000000000000e+03) (65, -9.90273420899948632723e+02) (66, -1.18552312121559907609e+03) (67, -6.65353125454143423667e+00) (68, -3.10879254079659119725e+02) (69, -8.64938057164277211086e+02) (70, -1.50000000000000000000e+03) (71, -1.50000000000000000000e+03) (72, -9.56793960844499657981e+00) (0, 6.57325499075925137049e+01) (1, -1.04668051195436282796e+03) (2, 1.50000000000000000000e+03) (3, 1.50000000000000000000e+03) (4, 1.50000000000000000000e+03) (5, 1.50000000000000000000e+03) (6, 1.50000000000000000000e+03) (7, 1.50000000000000000000e+03) (8, 1.68285390030147558038e-01) (9, -4.30034215632616501068e+00) (10, 1.54473594322887368691e+01) (11, 1.32833334402410385700e+00) (12, 1.24770899066640231467e+03) (13, 1.50000000000000000000e+03) (14, 1.39702154214259167020e+03) (15, 8.73487933913636854788e-02) (16, 6.86332360971839872121e+00) (17, 1.44455592420108769325e+00) (18, 1.50000000000000000000e+03) (19, 5.23808820175690698306e+02) (20, 9.87626914465898266826e+02) (21, 7.24135311920214348902e+02) (22, 3.19156778976504573730e-01) (23, 1.85139918389939817089e-01) (24, 9.33937446529305992371e-01) (25, 1.97961996359830330050e+01) (26, 6.49978159175274328163e+01) (27, 2.68223464526921606677e+00) (28, 1.50000000000000000000e+03) (29, 9.29393289523623479909e+02) (30, 5.86042515260803156707e+02) (31, 1.63869714384592981560e+01) (32, 8.61330505197279272522e+00) (33, 1.36788908681207544760e+03) (34, 9.41035985471419138548e+01) (35, 6.41767110529094658711e-02) (36, 1.06063472478620326456e+01) (37, 1.13140408637248924606e+03) (38, 1.50000000000000000000e+03) (39, 3.97289384577547934896e+01) (40, 1.68480507623611164281e-01) (41, 1.50000000000000000000e+03) (42, 1.50000000000000000000e+03) (43, 1.01993495737780335730e+03) (44, 2.37427215518997536403e-01) (45, 1.50000000000000000000e+03) (46, 1.50000000000000000000e+03) (47, 1.31084263427710445704e+00) (48, 2.84540962426339319791e+02) (49, 1.50000000000000000000e+03) (50, 1.50000000000000000000e+03) (51, 1.50000000000000000000e+03) (52, 1.50000000000000000000e+03) (53, 1.50000000000000000000e+03) (54, 1.50000000000000000000e+03) (55, 2.47591620320590379833e+02) (56, 3.07347025855861755161e+00) (57, 2.28589281068285927745e+01) (58, 1.50000000000000000000e+03) (59, 2.29572278414097780797e+02) (60, 5.09902382745385995833e+00) (61, 1.50000000000000000000e+03) (62, 1.50000000000000000000e+03) (63, 3.50260188454479903797e+00) (64, 1.50000000000000000000e+03) (65, 1.03742419661710702505e-01) (66, 1.50000000000000000000e+03) (67, 1.82041298995489042589e-01) (68, -2.34437067675031940439e+01) (69, 1.50000000000000000000e+03) (70, 3.92076333728794708122e+01) (71, 6.73461257358450637867e+00) (72, 1.66609438350975942456e+01) (0, -2.32046611796083865897e+01) (1, -4.25640486698469118210e+01) (2, -9.11329766965396999012e+01) (3, -1.50000000000000000000e+03) (4, -1.50000000000000000000e+03) (5, -1.50000000000000000000e+03) (6, -1.50000000000000000000e+03) (7, -1.50000000000000000000e+03) (8, -2.90696521615134066963e+01) (9, -8.49361462604707462276e+00) (10, -2.29861931927961400390e+01) (11, -1.33392539828456193618e+01) (12, -1.44824102896033952703e+01) (13, -4.91659225505938923817e+00) (14, -5.34442665720269971530e+00) (15, -1.32141906692884862906e+01) (16, -3.59995538658453824610e+02) (17, -2.49445517378796033370e+01) (18, -5.29081401716724109008e+00) (19, -1.93538228297417518320e+01) (20, -3.59496321500723965414e+01) (21, -1.35298159459268081406e+01) (22, -2.45327529478917711003e+02) (23, -7.06710942855888077929e+01) (24, -3.60463747854288030226e+01) (25, -6.27401577862753967452e+00) (26, -5.77813334354364585010e+01) (27, -6.17358343135980760508e+01) (28, -1.29681835675119742746e+02) (29, -3.36301342964608593888e+01) (30, -3.66376300267359553686e+01) (31, -3.10523493577725311354e+01) (32, -5.22154824219640204319e+02) (33, -2.99782336697182074658e+01) (34, -1.68680254368799637632e+02) (35, -1.22226904229119284651e+02) (36, -7.92135898722489741886e+01) (37, -7.23360126065750534963e+01) (38, -5.16995919636689649224e+01) (39, -6.67204637112654950215e+01) (40, -1.39566337864226795773e+02) (41, -3.34140861912080833207e+00) (42, -4.44346252256944307391e+00) (43, -2.10056544864809815465e+01) (44, -4.29639303846859377245e+01) (45, -7.51425211053569874764e+00) (46, 7.66110540432336733829e+02) (47, -3.86175539145217214809e+01) (48, -8.14279822690201854130e+02) (49, -3.49412507923334416660e+01) (50, -1.50000000000000000000e+03) (51, -5.15170516977542121140e+01) (52, -4.19712147570320155410e+02) (53, -1.50000000000000000000e+03) (54, 3.40802566302480158811e+00) (55, -7.58528754784773923348e+02) (56, -1.46004694878224745480e+03) (57, -7.78184192721267891102e+02) (58, -1.32177329411478638121e+02) (59, -1.71506344682389510581e+02) (60, -3.86771296800410837591e+01) (61, -1.50000000000000000000e+03) (62, -9.07558611625735466077e+02) (63, -1.50000000000000000000e+03) (64, -1.50000000000000000000e+03) (65, -1.19620311625718022697e+03) (66, -5.99529213863067070633e+02) (67, -2.75416690642897421526e+01) (68, -5.93543352872526810415e+01) (69, -1.81685355464433143879e+02) (70, -4.07748132090713568232e+02) (71, -1.13361600642907728798e+03) (72, -5.43749470555908658298e+01) (0, -2.32687425499036955046e+01) (1, -1.00202789117382337736e+02) (2, -9.10669917805458197790e+01) (3, -1.50000000000000000000e+03) (4, -1.50000000000000000000e+03) (5, -1.50000000000000000000e+03) (6, -1.50000000000000000000e+03) (7, -1.50000000000000000000e+03) (8, -1.22137728640642482247e+01) (9, -8.47266812472578045856e+00) (10, -8.79636733610993104548e+00) (11, -5.50787452772259999989e+00) (12, -6.05341911779111629954e+00) (13, -2.14457250037181479385e+00) (14, -2.16700911890301917140e+00) (15, -5.41121928100621651936e+00) (16, -1.50011579652425353970e+02) (17, -2.48455131418151751177e+01) (18, -2.19311055878375515960e+00) (19, -8.17902605403464200151e+00) (20, -1.49467815057408213164e+01) (21, -5.56303294121429736663e+00) (22, -1.19280194192250149854e+02) (23, -2.94502187768412788671e+01) (24, -3.58682706316414012804e+01) (25, -2.59383551683661206511e+00) (26, -2.40634304533203362553e+01) (27, -2.58126067784514603431e+01) (28, -5.40402780171643470908e+01) (29, -1.39541568929730814830e+01) (30, -1.52034908979187939337e+01) (31, -1.29082339443696074710e+01) (32, -5.22220062581579895777e+02) (33, -3.00194739855651562266e+01) (34, -7.03839003413132502374e+01) (35, -5.08916550982795996561e+01) (36, -3.30749718508045091880e+01) (37, -3.01642647884402492764e+01) (38, -2.14535988056045994199e+01) (39, -2.79025877635854264724e+01) (40, -5.81755673763168132950e+01) (41, -1.44056906393857175885e+00) (42, -1.83535721674083540655e+00) (43, -8.64269966583114879199e+00) (44, -1.79776116140089605722e+01) (45, -3.18668425906718244534e+00) (46, 5.30824933628917278838e+02) (47, -1.60283993254478183133e+01) (48, -5.44260965636158289271e+02) (49, -3.48510028026603038143e+01) (50, -1.26632561204389799059e+03) (51, -5.14664070533016655418e+01) (52, -4.19726891497567862643e+02) (53, -1.50000000000000000000e+03) (54, 1.42119839903501121725e+00) (55, -5.21015061809896565137e+02) (56, -1.46007515759629791319e+03) (57, -7.78094344113826991816e+02) (58, -1.32121736895051270722e+02) (59, -7.14993388169932444498e+01) (60, -1.61070929281307613223e+01) (61, -1.50000000000000000000e+03) (62, -7.71673549804432354904e+02) (63, -1.50000000000000000000e+03) (64, -1.50000000000000000000e+03) (65, -9.84143487431271523747e+02) (66, -3.14843084834553451401e+02) (67, -2.74457659686546691091e+01) (68, -2.46921501910367986454e+01) (69, -7.56798448493658213465e+01) (70, -1.69872280510777869722e+02) (71, -8.90459385797555910358e+02) (72, -2.26138256431102142585e+01) (0, 1.49579625620315391643e+03) (1, 1.50000000000000000000e+03) (2, 1.50000000000000000000e+03) (3, 1.50000000000000000000e+03) (4, -1.15378454080788084291e+00) (5, 1.50000000000000000000e+03) (6, 1.50000000000000000000e+03) (7, 1.50000000000000000000e+03) (8, 1.18642879105454676392e+03) (9, 1.50000000000000000000e+03) (10, 1.50000000000000000000e+03) (11, 1.50000000000000000000e+03) (12, 1.50000000000000000000e+03) (13, 1.50000000000000000000e+03) (14, 1.13068770797775086656e+00) (15, 1.40088378700223847773e+03) (16, 1.50000000000000000000e+03) (17, 1.50000000000000000000e+03) (18, 1.50000000000000000000e+03) (19, 1.50000000000000000000e+03) (20, 1.50000000000000000000e+03) (21, 1.50000000000000000000e+03) (22, 1.14753167356403537269e+03) (23, 1.74917347676703940351e+01) (24, 1.50000000000000000000e+03) (25, 1.05993377959797552279e+00) (26, 8.79238688388508049520e-01) (27, -5.00703373950874564002e+01) (28, -7.78495717227484078649e+01) (29, 1.15946822984160102799e+00) (30, 1.50595667454176185274e+00) (31, 1.27166130209439120335e+03) (32, 1.50000000000000000000e+03) (33, 1.09177715946077413811e+00) (34, 1.01859304666979789999e+03) (35, 3.13960327609198808219e+00) (36, 1.24670413743245411808e+00) (37, 9.26065321990035499766e+02) (38, 1.04474020065189776574e+00) (39, 9.26166512625335826669e+02) (40, 1.50000000000000000000e+03) (41, -1.10335349093140365540e+02) (42, -1.39134559161186189158e+03) (43, 1.22950072546742061874e-01) (44, 1.04281951802129557727e+00) (45, -3.08832489255535591610e+00) (46, -1.39134559161186189158e+03) (47, 1.50000000000000000000e+03) (48, 1.50000000000000000000e+03) (49, 1.24956279656870970030e+03) (50, 1.11055775783639819565e+03) (51, 1.24485129635847613372e+00) (52, 3.28935024476226232082e+01) (53, 1.50000000000000000000e+03) (54, 3.54796952063078707695e-01) (55, 1.50000000000000000000e+03) (56, 1.50000000000000000000e+03) (57, 1.50000000000000000000e+03) (58, 1.49586039967413262275e+03) (59, 6.33971103489050094026e+01) (60, 3.49309640058445154409e+01) (61, 1.20593888777782058241e+03) (62, 1.50000000000000000000e+03) (63, 1.38876485924849579767e-01) (64, 1.50000000000000000000e+03) (65, 1.50000000000000000000e+03) (66, 5.25912783225673820198e+02) (67, 1.27175560478992338176e+03) (68, 1.50000000000000000000e+03) (69, 2.42134225215634524275e+00) (70, 1.50000000000000000000e+03) (71, -9.25466059023569265207e+00) (72, 3.21997217973088766030e+02) (0, -2.32421814399725086275e+01) (1, -4.24913572175643707851e+01) (2, -9.11470543227319467405e+01) (3, -1.50000000000000000000e+03) (4, -1.50000000000000000000e+03) (5, -1.50000000000000000000e+03) (6, -1.50000000000000000000e+03) (7, -1.50000000000000000000e+03) (8, -1.20393449475906813007e+01) (9, -8.52250628572621415913e+00) (10, -8.71771038415859322868e+00) (11, -5.53934607269572865107e+00) (12, -6.07764081029319314098e+00) (13, -2.05780809937160658052e+00) (14, -2.24247497726512534655e+00) (15, -5.55178919313540930602e+00) (16, -1.50032575136751319178e+02) (17, -2.48069520210769205448e+01) (18, -2.17223816522226664816e+00) (19, -8.18034335460863637479e+00) (20, -1.49045272547076912417e+01) (21, -5.69988253578647796616e+00) (22, -1.19336418585628706523e+02) (23, -2.95210245578340213513e+01) (24, -3.59578846747782918669e+01) (25, -2.52326098976184987066e+00) (26, -2.41348108351113346259e+01) (27, -2.57480154653599271342e+01) (28, -5.39810852109175769442e+01) (29, -1.39041713005335232367e+01) (30, -1.53091003556628493243e+01) (31, -1.30224800312650152989e+01) (32, -5.22131964965099541587e+02) (33, -3.00051459826082336235e+01) (34, -7.02529404341434542403e+01) (35, -5.10352973330802441865e+01) (36, -3.28885023246966099464e+01) (37, -3.01931953898833107530e+01) (38, -2.14233464235533688225e+01) (39, -2.77416903239841907691e+01) (40, -5.82543361386671776359e+01) (41, -1.33165972984286518077e+00) (42, -1.90593132509296148136e+00) (43, -8.74569012068358730971e+00) (44, -1.79819378818932769093e+01) (45, -3.13272422280118245652e+00) (46, 5.30781373264822832425e+02) (47, -1.60537210776581034111e+01) (48, -5.44168444479154004512e+02) (49, -3.48736907731002148125e+01) (50, -1.26635225109668226651e+03) (51, -5.15316316483376439805e+01) (52, -4.19686429059599731772e+02) (53, -1.50000000000000000000e+03) (54, 1.48516802598652120082e+00) (55, -5.21064213415158519638e+02) (56, -1.46008744651547908688e+03) (57, -7.78101754868573380008e+02) (58, -1.32577543532079346278e+02) (59, -7.14524349300208143632e+01) (60, -1.60645180904375663999e+01) (61, -1.50000000000000000000e+03) (62, -7.71540892001375141263e+02) (63, -1.50000000000000000000e+03) (64, -1.50000000000000000000e+03) (65, -9.84079869723931551562e+02) (66, -3.14856054615180653400e+02) (67, -2.75351381925776088622e+01) (68, -2.48574630882132865395e+01) (69, -7.56625622478486405953e+01) (70, -1.70000755298079809563e+02) (71, -8.90503467454102633383e+02) (72, -2.26876337104775629427e+01) (0, -2.32720652107830794364e+01) (1, -4.25080755888397163744e+01) (2, -9.10131343714655969279e+01) (3, -1.50000000000000000000e+03) (4, -1.50000000000000000000e+03) (5, -1.50000000000000000000e+03) (6, -1.50000000000000000000e+03) (7, -1.50000000000000000000e+03) (8, -1.21786065557220837263e+01) (9, -8.60195177966566504324e+00) (10, -8.83116653087128611332e+00) (11, -5.63727672540623547803e+00) (12, -6.10779387833876619140e+00) (13, -2.06516307366911489041e+00) (14, -2.13690904674489035031e+00) (15, -5.58315619183944100712e+00) (16, -1.50061138004445865590e+02) (17, -2.49466367315748485112e+01) (18, -2.33244181475735246067e+00) (19, -8.17038686840278316481e+00) (20, -1.49073749402287525356e+01) (21, -5.64689928769449434043e+00) (22, -1.19240269781949081107e+02) (23, -2.94770173872573124640e+01) (24, -3.60439855885279456515e+01) (25, -2.54738023473028274424e+00) (26, -2.40316854811621851695e+01) (27, -2.57043797151722053229e+01) (28, -5.39227663972759216904e+01) (29, -1.39680112423047013692e+01) (30, -1.53263089828787499869e+01) (31, -1.29940449883408053466e+01) (32, -5.22212523278146136363e+02) (33, -2.98884346584646536371e+01) (34, -7.02975244217867896168e+01) (35, -5.10121935194677220693e+01) (36, -3.30211137641870990933e+01) (37, -3.01925925731771194194e+01) (38, -2.14346549292011232524e+01) (39, -2.78135633685327192666e+01) (40, -5.81331788130133375603e+01) (41, -1.45642438229644666237e+00) (42, -1.87573501937176390086e+00) (43, -8.65468586307532028457e+00) (44, -1.79140575056641360163e+01) (45, -7.60298025587769288336e+00) (46, 5.30841010523727049986e+02) (47, -1.60144035691234982721e+01) (48, -5.44172366953317350635e+02) (49, -3.47742571608439590136e+01) (50, -1.50000000000000000000e+03) (51, -5.15384018080220656088e+01) (52, -4.19734012202231724586e+02) (53, -1.50000000000000000000e+03) (54, 1.32240503389857488870e+00) (55, -5.20997897468466703685e+02) (56, -1.46016614296500756609e+03) (57, -7.78161392506805213998e+02) (58, -3.18317796694917660716e+02) (59, -7.14728125658146069554e+01) (60, -1.61879956704406708923e+01) (61, -1.50000000000000000000e+03) (62, -7.71532834594244604887e+02) (63, -1.50000000000000000000e+03) (64, -1.50000000000000000000e+03) (65, -9.84116396304537602191e+02) (66, -3.14836986691544382211e+02) (67, -2.74582952381678495613e+01) (68, -2.46933868491329135963e+01) (69, -7.56548028299532688834e+01) (70, -1.69995785388218564549e+02) (71, -8.90418233892255443607e+02) (72, -2.26046389420555442484e+01) (0, -2.32368989951075128886e+01) (1, -4.25318377724576919263e+01) (2, -9.10622592297015387430e+01) (3, -1.50000000000000000000e+03) (4, -1.50000000000000000000e+03) (5, -1.50000000000000000000e+03) (6, -1.50000000000000000000e+03) (7, -1.50000000000000000000e+03) (8, -1.21391399106829638299e+01) (9, -8.64171596457668123037e+00) (10, -8.74344098577450701271e+00) (11, -5.45238728194703092811e+00) (12, -6.11032105245062684418e+00) (13, -2.11112158495398061220e+00) (14, -2.23071605579449894208e+00) (15, -5.44532100110986316821e+00) (16, -1.49997144818851268155e+02) (17, -2.48608213734380250060e+01) (18, -2.31808420403088222272e+00) (19, -8.01365061314466586850e+00) (20, -1.50135021780348818510e+01) (21, -5.63657756694428524469e+00) (22, -1.19274079138751176288e+02) (23, -2.94196712026892619463e+01) (24, -3.60145959441414760249e+01) (25, -2.70434664010284997460e+00) (26, -2.40102630604008631110e+01) (27, -2.56672306528903710898e+01) (28, -5.40747628927872554527e+01) (29, -1.40613552627696307695e+01) (30, -1.52061651521748970595e+01) (31, -1.29108752652894693824e+01) (32, -5.22129629479248819734e+02) (33, -3.00174156890701056000e+01) (34, -7.02434262497055499352e+01) (35, -5.08934246451910112796e+01) (36, -3.29599021415136519408e+01) (37, -3.01714884264156104621e+01) (38, -2.15805773732492340855e+01) (39, -2.79128851038935188456e+01) (40, -5.81518388510697121774e+01) (41, -1.31462127826754904270e+00) (42, -1.79016731118022365266e+00) (43, -8.67587307524355466626e+00) (44, -1.80182129159003352470e+01) (45, -3.20520129039805112825e+00) (46, 5.30757658499308149658e+02) (47, -1.60545657938582557733e+01) (48, -5.44094790896131712543e+02) (49, -3.48432515744432507176e+01) (50, -1.26638640307430569010e+03) (51, -5.15669529886425763721e+01) (52, -4.19792684895080810747e+02) (53, -1.50000000000000000000e+03) (54, 1.35120003784611641962e+00) (55, -5.21027180517022543427e+02) (56, -1.46004034469358543902e+03) (57, -7.78111175082096451661e+02) (58, -1.32659725824454056919e+02) (59, -7.14990107899038775940e+01) (60, -1.62311222661967349268e+01) (61, -1.50000000000000000000e+03) (62, -7.71675863098262880158e+02) (63, -1.50000000000000000000e+03) (64, -1.50000000000000000000e+03) (65, -9.84005326633494291855e+02) (66, -3.14878450617106636855e+02) (67, -2.73980548016699145819e+01) (68, -2.47612130342152028106e+01) (69, -7.56421891965834163329e+01) (70, -1.69834866684008062521e+02) (71, -8.90504720115487202747e+02) (72, -2.26502222076370216541e+01) (0, -1.32847772800430811913e+03) (1, -1.47500000000000000000e+03) (2, 9.19677421793997496025e+01) (3, 1.50000000000000000000e+03) (4, 1.50000000000000000000e+03) (5, 9.09236493549098440781e+02) (6, -5.72016013484805057487e+02) (7, 1.50000000000000000000e+03) (8, -1.46039999599456768919e+03) (9, -1.50000000000000000000e+03) (10, -1.41221040369518914304e+03) (11, -1.44499999880790710449e+03) (12, -1.12734469411121790472e+03) (13, 1.16643127655202010828e+03) (14, 1.93940450695185684360e+00) (15, -4.47675451155322434715e+02) (16, -1.44539999539852124144e+03) (17, -1.47907096136562586253e+03) (18, -1.47500000000000000000e+03) (19, -2.71859487921775894392e+02) (20, -1.58169128276039685943e+02) (21, -1.47500000000000000000e+03) (22, -1.44499999880790710449e+03) (23, -9.06977695791310566165e+02) (24, 3.35176885029174798092e+01) (25, 5.93079257113187896522e+00) (26, 7.62102581186103265054e+01) (27, 1.18633494133254703229e+03) (28, 1.50000000000000000000e+03) (29, 1.36649538211773005969e+02) (30, 1.27571685969344116529e+02) (31, 2.35271647903640523936e+00) (32, -1.47500000000000000000e+03) (33, 1.37907306268958359396e+03) (34, 1.27762002478678340367e+01) (35, -1.15349519555583257535e-01) (36, 6.77631041231238810951e+01) (37, 4.27253263144637799087e+02) (38, 1.50000000000000000000e+03) (39, 3.75201475573672666997e+01) (40, -1.41040298142609390197e+03) (41, 1.50000000000000000000e+03) (42, 1.50000000000000000000e+03) (43, 1.50000000000000000000e+03) (44, -7.59829311813829917810e+02) (45, 1.50000000000000000000e+03) (46, 1.50000000000000000000e+03) (47, -4.88091918760742249361e+00) (48, -1.47500000000000000000e+03) (49, 1.44764113216321811706e+03) (50, 1.50000000000000000000e+03) (51, 1.46382382095134812516e+03) (52, 1.44961377812282853483e+03) (53, 1.50000000000000000000e+03) (54, 1.50000000000000000000e+03) (55, -1.47500000000000000000e+03) (56, -3.44987023825076732919e+01) (57, -1.47500000000000000000e+03) (58, 1.33939999074935917633e+03) (59, -7.50747536457485736827e-02) (60, -4.69236053230853045193e+00) (61, 1.40375423054252587463e+03) (62, 1.33587584143706141759e+01) (63, 7.20748462850882674502e+02) (64, 4.00129696212096121144e+02) (65, -1.41244519524953249245e+00) (66, 1.19579999198913560576e+03) (67, -2.14122862426086783216e+02) (68, -1.47500000000000000000e+03) (69, 1.50000000000000000000e+03) (70, -5.59576658751064087483e+02) (71, 1.18148110132491956392e+03) (72, 1.38399295217577988915e+00) (0, -2.33339416833251611649e+01) (1, -4.25882122156888343056e+01) (2, -9.09617096275573260300e+01) (3, -1.50000000000000000000e+03) (4, -1.50000000000000000000e+03) (5, -1.50000000000000000000e+03) (6, -1.50000000000000000000e+03) (7, -1.50000000000000000000e+03) (8, -1.20597380913956957471e+01) (9, -8.65329133260966365526e+00) (10, -8.86678912683897557656e+00) (11, -5.55812140308688640289e+00) (12, -6.12077630353273782760e+00) (13, -2.07794058321356933661e+00) (14, -2.23138302051047121566e+00) (15, -5.42398088132568467756e+00) (16, -1.50036210888913444705e+02) (17, -2.49003294794686667046e+01) (18, -2.23552612094281011323e+00) (19, -8.11632846388920903280e+00) (20, -1.49541070954136792182e+01) (21, -5.59481454713272885471e+00) (22, -1.19230597007151061462e+02) (23, -2.95144530498165167387e+01) (24, -3.58707913925727837068e+01) (25, -2.70464101655130750856e+00) (26, -2.40294728096593175337e+01) (27, -2.58032591664601831383e+01) (28, -5.39426304865207413286e+01) (29, -1.39277360891181558600e+01) (30, -1.52348683341413391190e+01) (31, -1.30757855501277031607e+01) (32, -5.22052384748828444572e+02) (33, -2.99455692688923420519e+01) (34, -7.02934196214826982896e+01) (35, -5.09776381227945591945e+01) (36, -3.30703982642463500952e+01) (37, -3.00997520802790354821e+01) (38, -2.15938173918403748530e+01) (39, -2.77439794043587184547e+01) (40, -5.80916778730592469060e+01) (41, -1.45120943792315282295e+00) (42, -1.92699573585864558645e+00) (43, -8.82616735129543705796e+00) (44, -1.79216200708352957349e+01) (45, -3.14269667671907981799e+00) (46, 5.30828704346020685989e+02) (47, -1.59970390187622459877e+01) (48, -5.44271794391463572538e+02) (49, -3.48896476476228869501e+01) (50, -1.26643155415004730457e+03) (51, -5.14845613983730459040e+01) (52, -4.19797317948448892366e+02) (53, -1.50000000000000000000e+03) (54, 1.33880978098838943069e+00) (55, -5.21088009021802008647e+02) (56, -1.46004230801417543262e+03) (57, -7.78142775088119378779e+02) (58, -1.32656582839823244058e+02) (59, -7.13688417042273783863e+01) (60, -1.61291030985683079280e+01) (61, -1.50000000000000000000e+03) (62, -7.71510604294444306106e+02) (63, -1.50000000000000000000e+03) (64, -1.50000000000000000000e+03) (65, -9.84090061204433141029e+02) (66, -3.14983400199734830949e+02) (67, -2.74622647015604854914e+01) (68, -2.47742112591106256048e+01) (69, -7.57603787978027014560e+01) (70, -1.69930170887344075936e+02) (71, -8.90457557362372085663e+02) (72, -2.27049999655316803171e+01) (0, 1.50000000000000000000e+03) (1, 1.50000000000000000000e+03) (2, 1.50000000000000000000e+03) (3, 1.50000000000000000000e+03) (4, 1.50000000000000000000e+03) (5, 1.50000000000000000000e+03) (6, 1.50000000000000000000e+03) (7, 1.50000000000000000000e+03) (8, 1.34905289670669361612e+02) (9, 1.50000000000000000000e+03) (10, 1.50000000000000000000e+03) (11, 1.50000000000000000000e+03) (12, 1.50000000000000000000e+03) (13, 1.50000000000000000000e+03) (14, 1.92047250488762966114e+00) (15, 7.23785889995302245126e+00) (16, 6.03204479674741378403e+02) (17, 1.50000000000000000000e+03) (18, 1.50000000000000000000e+03) (19, 1.50000000000000000000e+03) (20, 1.50000000000000000000e+03) (21, 1.50000000000000000000e+03) (22, 1.16126712778230142931e+02) (23, 6.34976884395298402097e+00) (24, 1.49946409644518780624e+03) (25, 2.46979131679320795811e+00) (26, 2.41765000327809076452e+00) (27, -1.24415687722031655937e+01) (28, -2.53164257325135100274e+00) (29, 1.61408151812565563432e+01) (30, 8.46230102691346530719e+00) (31, 1.48421137394392007991e+03) (32, 1.50000000000000000000e+03) (33, 5.47298427598417713824e+00) (34, 1.25083314910035051071e+03) (35, 1.32136836941552116009e+00) (36, 2.76903932297162436171e+00) (37, 9.42527268056357229398e+02) (38, 2.38443660058574868899e+00) (39, 9.42611344088348687364e+02) (40, 1.50000000000000000000e+03) (41, 2.36055082520300496540e+00) (42, 2.38091089501165142917e-01) (43, 2.09747865213101469806e+00) (44, 2.42555436916791933299e+00) (45, 5.58833166039741691122e+00) (46, -1.39134559161186189158e+03) (47, 1.45126835033715366308e+02) (48, 1.50000000000000000000e+03) (49, 1.50000000000000000000e+03) (50, 1.50000000000000000000e+03) (51, 4.44495078789043844836e+01) (52, 1.89440254022725440564e+02) (53, 1.50000000000000000000e+03) (54, 1.98271185004037531208e+00) (55, 1.50000000000000000000e+03) (56, 1.50000000000000000000e+03) (57, 1.50000000000000000000e+03) (58, 1.50000000000000000000e+03) (59, 2.81836981268199551209e+01) (60, 2.44245943043092914593e+01) (61, 1.50000000000000000000e+03) (62, 1.50000000000000000000e+03) (63, 3.49170080109069935759e+00) (64, 1.50000000000000000000e+03) (65, 1.50000000000000000000e+03) (66, 1.50000000000000000000e+03) (67, 9.42657745441442216361e+02) (68, 1.50000000000000000000e+03) (69, 3.50437859532662628226e+02) (70, 1.50000000000000000000e+03) (71, 4.47944433453799906175e+00) (72, 3.28374760036133636731e+02) (0, -2.33242945347063574957e+01) (1, -4.25067822929191763137e+01) (2, -9.11490464059162519561e+01) (3, -1.50000000000000000000e+03) (4, -1.50000000000000000000e+03) (5, -1.50000000000000000000e+03) (6, -1.50000000000000000000e+03) (7, -1.50000000000000000000e+03) (8, -1.21857174029882635580e+01) (9, -8.55551044104173463722e+00) (10, -8.85597075047190784858e+00) (11, -5.45667653255242424137e+00) (12, -6.04146552279800808094e+00) (13, -2.10925783457647808561e+00) (14, -2.28679816776158784108e+00) (15, -5.51488660193072632865e+00) (16, -1.49959750062680996052e+02) (17, -2.47921930360193130127e+01) (18, -2.20123197422555749725e+00) (19, -8.03695361551783982179e+00) (20, -1.49941400864732958809e+01) (21, -5.64303569323529430335e+00) (22, -1.19211357104926833017e+02) (23, -2.95840045062687018174e+01) (24, -3.60413286649744932788e+01) (25, -2.50924316342049191775e+00) (26, -2.39565232657220299473e+01) (27, -2.58143951418975845513e+01) (28, -5.40805910108258487412e+01) (29, -1.40045060014805500259e+01) (30, -1.52880003979903413835e+01) (31, -1.30040989229269108307e+01) (32, -5.22047724738421266011e+02) (33, -2.99860381081200273456e+01) (34, -7.04185218067558906796e+01) (35, -5.09686289926406175255e+01) (36, -3.29843448854810148418e+01) (37, -3.02473514286691269604e+01) (38, -2.14637509538387334374e+01) (39, -2.77839053370928183995e+01) (40, -5.81414963298814129189e+01) (41, -1.31032462346131306496e+00) (42, -1.86547679805828403587e+00) (43, -8.79667502728973893511e+00) (44, -1.80120525107165967427e+01) (45, -3.13659288616983467080e+00) (46, 5.30767290949421294499e+02) (47, -1.60110106325042345077e+01) (48, -5.44157554157465028766e+02) (49, -3.49167668975981086987e+01) (50, -1.26636615091541784750e+03) (51, -5.16103541584142888610e+01) (52, -4.19672658341546423344e+02) (53, -1.50000000000000000000e+03) (54, 1.34346556756832358204e+00) (55, -5.20933886684321123539e+02) (56, -1.46016226703015149724e+03) (57, -7.78265169760675576072e+02) (58, -1.32713596480759917995e+02) (59, -7.14267612416214205950e+01) (60, -1.61282676805066138570e+01) (61, -1.50000000000000000000e+03) (62, -7.71496837204544476663e+02) (63, -1.50000000000000000000e+03) (64, -1.50000000000000000000e+03) (65, -9.84201396299806447132e+02) (66, -3.14968895641018775677e+02) (67, -2.75268258668085081808e+01) (68, -2.48331456998938051584e+01) (69, -7.56158078009919023543e+01) (70, -1.69834657982439097168e+02) (71, -8.90366310256904284870e+02) (72, -2.26195441572392645924e+01) (0, 1.50000000000000000000e+03) (1, 1.50000000000000000000e+03) (2, 8.88876821058287247546e-01) (3, 1.50000000000000000000e+03) (4, 1.50000000000000000000e+03) (5, 1.50000000000000000000e+03) (6, 1.50000000000000000000e+03) (7, 1.50000000000000000000e+03) (8, 1.50000000000000000000e+03) (9, -1.39134559161186189158e+03) (10, 4.09004160913379077869e+00) (11, 2.11169852905284614053e+01) (12, 2.09579703035661566446e+01) (13, 1.50000000000000000000e+03) (14, 3.93702770107460575666e-01) (15, -1.16433466688239946052e+01) (16, 2.21549111724981777627e+01) (17, 1.90070719039884239443e+00) (18, 1.50000000000000000000e+03) (19, 1.50000000000000000000e+03) (20, 1.50000000000000000000e+03) (21, 1.50000000000000000000e+03) (22, 7.68049468723188056174e+02) (23, 5.20843660829135579604e-01) (24, 3.94087330210716624279e-01) (25, -5.88228718172215625515e+00) (26, 4.89103638559106823624e-01) (27, -2.24855240994382965525e+00) (28, -1.18724686283900062733e+01) (29, 5.53342277250939873490e-01) (30, 2.55550495625787132958e-01) (31, 2.13809324099641484551e+00) (32, -7.14193860158598909038e+02) (33, 3.01762937173953027514e-01) (34, 8.67610726616987681936e-01) (35, 1.54037410433564815548e+02) (36, 5.37300214454866864600e-01) (37, 4.70691643834238171440e-01) (38, 3.89397903685076318681e-01) (39, 8.00163593487693614037e-01) (40, 1.32546241985463719715e+00) (41, 4.25193279362690690348e-01) (42, 5.51938196167448268170e+02) (43, 5.22621639930293202525e-01) (44, 2.32673506660262532364e+01) (45, -4.71364626868825880024e+01) (46, -1.40899999594688415527e+03) (47, 3.61973489727779929037e-01) (48, 4.68343059376857162590e-01) (49, -7.48519944141858517561e-01) (50, 4.78716479626964030558e+02) (51, 3.31863546813221166332e-01) (52, 2.39217793916394416698e-01) (53, 2.45553041930991291508e+01) (54, -1.02177801575154262537e+03) (55, 1.50000000000000000000e+03) (56, -2.85392546314560879850e+00) (57, 4.97205373769448826238e+01) (58, 7.68850214879938675949e+02) (59, 1.50000000000000000000e+03) (60, 1.50000000000000000000e+03) (61, 6.08151049993512856418e+02) (62, 5.27031512898283982516e-01) (63, 1.50000000000000000000e+03) (64, 5.30882119650391004484e+00) (65, -1.27349767387706447330e+00) (66, 1.19475614853703482332e+00) (67, 6.14363509443975774893e-01) (68, 3.61385815964225420860e-01) (69, 6.36872948633072066826e+00) (70, 1.50000000000000000000e+03) (71, 1.50000000000000000000e+03) (72, 7.20642939676329863374e-01) (0, -9.55415730173223209931e+00) (1, -7.08446786187651866840e+00) (2, -3.77893941531096473341e+01) (3, -1.50000000000000000000e+03) (4, -1.50000000000000000000e+03) (5, -1.50000000000000000000e+03) (6, -1.50000000000000000000e+03) (7, -1.50000000000000000000e+03) (8, -4.88785633837658117784e+00) (9, -3.02102651160398405494e+00) (10, -3.44141654045334988155e+00) (11, -5.46060541793360387786e-01) (12, -2.47836290070543352471e+00) (13, -7.24520240854654051788e-01) (14, -7.29129903636849929782e-01) (15, -2.24422183375744577205e+00) (16, -6.23828505348193687041e+01) (17, -1.02853697411412614571e+01) (18, 1.86311397274259681056e-02) (19, -3.25352139017475927574e+00) (20, -6.16444013590831385585e+00) (21, -2.26326259498693183048e+00) (22, -2.03566489272233717145e+01) (23, -1.20635968283924093214e+01) (24, -1.49531119068460878196e+01) (25, -9.61588511991251948530e-01) (26, -9.95260330782773650071e+00) (27, -1.06278849737399543329e+01) (28, -2.23229919971364267894e+01) (29, -5.62778530196702941879e+00) (30, -6.27808389098875085921e+00) (31, -5.31411593352798039547e+00) (32, -2.82269811819499182093e+02) (33, -1.22835190114656125360e+01) (34, -2.91678105859899829966e+01) (35, -2.11365673104347031597e+01) (36, -1.35911420431404739162e+01) (37, -1.25048474353263774361e+01) (38, -8.89095221908793575949e+00) (39, -1.15053932674799153091e+01) (40, -2.41816640639527378198e+01) (41, -5.15747117241504349217e-01) (42, 7.70925969312910141368e-03) (43, -3.56970169803383274854e+00) (44, -7.30775629866744136365e+00) (45, -1.23024307675093691472e+00) (46, 2.88415960538132083002e+02) (47, -6.64423936857686125990e+00) (48, -2.91703626607610772226e+02) (49, -1.44679368441524847100e+01) (50, -1.01315456935056511156e+03) (51, -2.12744011928148033519e+01) (52, -1.79901065193218187233e+02) (53, -1.26381906967187023838e+03) (54, 7.82134047821714806226e-01) (55, -2.82099890430563334576e+02) (56, -1.23215043995866153637e+03) (57, -5.29143403558967747813e+02) (58, -5.50952144471176836760e+01) (59, -2.96488162371867929323e+01) (60, -6.51896821460602104992e+00) (61, -1.29459696817148187620e+03) (62, -5.40710284855421605243e+02) (63, -1.26703698132896511197e+03) (64, -1.50000000000000000000e+03) (65, -7.54921045769509191814e+02) (66, -1.31082043308763360301e+02) (67, -1.13410282434574192223e+01) (68, -1.01876446165918839171e+01) (69, -3.13699436735741912230e+01) (70, -7.06353490972374800094e+01) (71, -3.77822211761096014015e+02) (72, -9.24523990551603347399e+00) (0, -2.33357605000886039193e+01) (1, -4.24429097531810128885e+01) (2, -9.10475815559976950908e+01) (3, -1.50000000000000000000e+03) (4, -1.50000000000000000000e+03) (5, -1.50000000000000000000e+03) (6, -1.50000000000000000000e+03) (7, -1.50000000000000000000e+03) (8, -1.21507458490073840807e+01) (9, -8.47273201215149995846e+00) (10, -8.74474178862077167196e+00) (11, -5.53950809591090376216e+00) (12, -5.98816539722443152982e+00) (13, -2.15787460195115476935e+00) (14, -2.25763829630392365289e+00) (15, -5.44611826037053692318e+00) (16, -1.49964729391193827723e+02) (17, -2.48631778810091610410e+01) (18, -2.19714943616348357125e+00) (19, -8.08503644419726441583e+00) (20, -1.50162050586327850965e+01) (21, -5.58593410676153734329e+00) (22, -1.19255970740572820432e+02) (23, -2.94461521800416861083e+01) (24, -3.60221265711877123294e+01) (25, -2.53483231492347549363e+00) (26, -2.41025981531217752263e+01) (27, -2.56700483657497002810e+01) (28, -5.39989018617711309389e+01) (29, -1.39303819601076561696e+01) (30, -1.52045260042094483310e+01) (31, -1.29338757391613032866e+01) (32, -5.22109728160197164470e+02) (33, -3.00010988674008132193e+01) (34, -7.03733701837690830416e+01) (35, -5.09185286213044179249e+01) (36, -3.30705661876695202750e+01) (37, -3.02030675707195435109e+01) (38, -2.16112197035141662127e+01) (39, -2.78351550853935769680e+01) (40, -5.82144340459286979694e+01) (41, -1.34656441137874494096e+00) (42, -1.79955810673728788807e+00) (43, -8.81631261785657649455e+00) (44, -1.78969090630284739518e+01) (45, -3.24151432646453940833e+00) (46, 5.30816421700414707630e+02) (47, -1.61008465162160483430e+01) (48, -5.44133460439769351069e+02) (49, -3.48635536085426807063e+01) (50, -1.26650406962780903086e+03) (51, -5.16083254127849713200e+01) (52, -4.19762343468904361998e+02) (53, -1.50000000000000000000e+03) (54, 1.48334663933152732795e+00) (55, -5.21004369717892245717e+02) (56, -1.46017038852661835335e+03) (57, -7.78271363576218959679e+02) (58, -1.32639732738183170113e+02) (59, -7.13531935890335518025e+01) (60, -1.60603374546771284770e+01) (61, -1.50000000000000000000e+03) (62, -7.71553046371264372283e+02) (63, -1.50000000000000000000e+03) (64, -1.50000000000000000000e+03) (65, -9.84012453840466150723e+02) (66, -3.14912868465629117054e+02) (67, -2.74707697919201585535e+01) (68, -2.47999193855841717493e+01) (69, -7.57072493753708215536e+01) (70, -1.69829851655851513215e+02) (71, -8.90406021658734857738e+02) (72, -2.27472255195356325430e+01) (0, -2.31947883531793372924e+01) (1, -1.00154572166515521303e+02) (2, -9.09876973615657220762e+01) (3, -1.50000000000000000000e+03) (4, -1.50000000000000000000e+03) (5, -1.50000000000000000000e+03) (6, -1.50000000000000000000e+03) (7, -1.50000000000000000000e+03) (8, -1.21521135125267321087e+01) (9, -8.47517474771461110095e+00) (10, -8.83507204183188754598e+00) (11, -5.48215436520844701107e+00) (12, -5.98283823304270434562e+00) (13, -2.00922488736352944372e+00) (14, -2.26472870075988952365e+00) (15, -5.42780925120881008183e+00) (16, -1.50067389024244079110e+02) (17, -2.49752150446025922292e+01) (18, -2.17291423836628672106e+00) (19, -8.13425274285143906638e+00) (20, -1.49481076231457610248e+01) (21, -5.66095427352773672425e+00) (22, -1.19157703395654465339e+02) (23, -2.94503341867089716288e+01) (24, -3.59148544218294389907e+01) (25, -2.60044545085158684827e+00) (26, -2.39474585779847330969e+01) (27, -2.58199356789761225173e+01) (28, -5.40049279740560308483e+01) (29, -1.39863385467398870787e+01) (30, -1.53014567527605009900e+01) (31, -1.29989297076102996442e+01) (32, -5.22204027284479820992e+02) (33, -3.00381454215198999691e+01) (34, -7.03339223870227669977e+01) (35, -5.09418257920149386564e+01) (36, -3.29925129529201868195e+01) (37, -3.02255197449949442046e+01) (38, -2.14922783063845486140e+01) (39, -2.77584695140704553751e+01) (40, -5.82393289558603441947e+01) (41, -1.31795326746024366038e+00) (42, -1.86551880769194422527e+00) (43, -8.63588036062626152045e+00) (44, -1.79196482075025791403e+01) (45, -3.11456542889492915549e+00) (46, 5.30815162963826423947e+02) (47, -1.60262452907601797847e+01) (48, -5.44118548705793159570e+02) (49, -3.48405771472405447753e+01) (50, -1.26647868470100729610e+03) (51, -5.15253162434148990201e+01) (52, -4.19814387174461558061e+02) (53, -1.50000000000000000000e+03) (54, 1.36217379905408053631e+00) (55, -5.20949141274091175546e+02) (56, -1.46011234939082646633e+03) (57, -7.78237396841359441169e+02) (58, -1.32063145259770550410e+02) (59, -7.15011805685067400873e+01) (60, -1.60823273064497627161e+01) (61, -1.50000000000000000000e+03) (62, -7.71566087316206221658e+02) (63, -1.50000000000000000000e+03) (64, -1.50000000000000000000e+03) (65, -9.84186046991642115245e+02) (66, -3.14852454609414621700e+02) (67, -2.74213527262860736755e+01) (68, -2.47959647080552159082e+01) (69, -7.57278941250069550506e+01) (70, -1.69903749021874546088e+02) (71, -8.90426961891137693783e+02) (72, -2.27392591252532554336e+01) (0, 4.78686797532494267671e+02) (1, -1.43028799577999097892e+03) (2, 1.50000000000000000000e+03) (3, 1.05217177999448858827e+03) (4, 1.37991581272559824356e+03) (5, 1.48351801827347208018e+03) (6, 6.93261403502995335657e+02) (7, 1.13856799628067005870e+03) (8, 5.91604570896192626606e+02) (9, 5.72365876498330479194e+01) (10, 1.50000000000000000000e+03) (11, 1.50000000000000000000e+03) (12, 1.50000000000000000000e+03) (13, 1.50000000000000000000e+03) (14, 2.76491307439089228914e-01) (15, 2.08925523111993669545e+01) (16, 5.34772555783130769669e+01) (17, 1.50000000000000000000e+03) (18, 1.50000000000000000000e+03) (19, 1.50000000000000000000e+03) (20, 1.50000000000000000000e+03) (21, 1.50000000000000000000e+03) (22, 1.50000000000000000000e+03) (23, 5.23198533070914891141e+02) (24, 2.07329735114258291162e+01) (25, 1.88315925811579604199e-01) (26, 2.64210608031150484543e-01) (27, 3.07432432607042969153e+01) (28, -4.24478382263380993322e+01) (29, 1.03168554523987121563e+00) (30, 2.83288723669322337173e+02) (31, 1.48504804929486726905e+03) (32, 2.92035221993201368207e+01) (33, 2.83643782281912226750e-01) (34, 4.67260694608461122357e+01) (35, 4.34759585190966635349e-01) (36, 3.39659047103819222713e-01) (37, 2.92040913136842839037e+01) (38, 1.41648838606794924999e+03) (39, 1.57829876852265926779e+00) (40, 1.50000000000000000000e+03) (41, 7.18637210949726767950e+00) (42, 4.61239853082709205800e-01) (43, 2.66024998134877621592e-01) (44, 5.92720048336447202786e-01) (45, 1.50000000000000000000e+03) (46, 8.35992514583395973204e+02) (47, 3.12377983044552065550e+00) (48, 1.50000000000000000000e+03) (49, 5.23179976539042172590e+02) (50, 1.50000000000000000000e+03) (51, 2.28392581426809293532e-01) (52, 3.44713638846242897973e-01) (53, 1.48358209573450767493e+03) (54, 1.50000000000000000000e+03) (55, 4.62062077688124361430e+02) (56, 7.21924480169224409565e+01) (57, 1.50000000000000000000e+03) (58, 1.50000000000000000000e+03) (59, 5.88728123395227953552e+02) (60, 1.50000000000000000000e+03) (61, 1.00418135285140806445e+03) (62, 1.24427197781023369316e+03) (63, 3.48726041234566652705e+00) (64, 1.50000000000000000000e+03) (65, 7.63612557477307291265e+02) (66, 1.00422800542420054626e+03) (67, 3.10247510786618477141e+02) (68, 1.24443413509166884978e+03) (69, 1.50000000000000000000e+03) (70, 1.50000000000000000000e+03) (71, 5.29359716061184485625e+02) (72, 8.22485658310954192984e+00) (0, -2.33031477443599008836e+01) (1, -1.00231847783411296859e+02) (2, -9.10873132019875839660e+01) (3, -1.50000000000000000000e+03) (4, -1.50000000000000000000e+03) (5, -1.50000000000000000000e+03) (6, -1.50000000000000000000e+03) (7, -1.50000000000000000000e+03) (8, -1.20185384378380124559e+01) (9, -8.47504608652346469455e+00) (10, -8.70875192298260714097e+00) (11, -5.63974181075569269694e+00) (12, -6.03350206003974331992e+00) (13, -2.13147197267028021272e+00) (14, -2.26016489672106990483e+00) (15, -5.43788757974121317318e+00) (16, -1.50088794710721742831e+02) (17, -2.49694965725693229786e+01) (18, -2.28306547604632337212e+00) (19, -8.04448547461072926978e+00) (20, -1.49011169818909703366e+01) (21, -5.69068733781016877771e+00) (22, -1.19301320178526367499e+02) (23, -2.94303612822917131098e+01) (24, -3.60544429971119626543e+01) (25, -2.54707501740749808761e+00) (26, -2.40826907228245268300e+01) (27, -2.57362051294807443469e+01) (28, -5.40403533304281111782e+01) (29, -1.39223940492001183600e+01) (30, -1.52223966606903964305e+01) (31, -1.29427144521827113266e+01) (32, -5.22217358403835874014e+02) (33, -3.00587011698716466412e+01) (34, -7.03458157221847670826e+01) (35, -5.08927701439927133720e+01) (36, -3.30205539364002689240e+01) (37, -3.02583902037374805616e+01) (38, -2.14411225351453609278e+01) (39, -2.78529354259351826784e+01) (40, -5.80720707504315001302e+01) (41, -1.34047738035200869611e+00) (42, -1.91757216212368297725e+00) (43, -8.71928598517469133355e+00) (44, -1.78644194027208627062e+01) (45, -3.16205497919471589796e+00) (46, 5.30721679010838784052e+02) (47, -1.59924221725492508028e+01) (48, -5.44160319784059765880e+02) (49, -3.48442123350211758748e+01) (50, -1.01284702145790640770e+03) (51, -5.15200966804266258237e+01) (52, -4.19647755423451258139e+02) (53, -1.26358168237362883701e+03) (54, 1.38736626655274841724e+00) (55, -5.20922098098363449026e+02) (56, -1.46007900535389580909e+03) (57, -7.78147436515813410551e+02) (58, -5.46590162682960354346e+01) (59, -7.15032618878549754982e+01) (60, -1.61284224863442595677e+01) (61, -1.50000000000000000000e+03) (62, -7.71511953380126897173e+02) (63, -1.50000000000000000000e+03) (64, -1.50000000000000000000e+03) (65, -9.84143806390817871943e+02) (66, -3.14862825260642921421e+02) (67, -2.74801156438048792552e+01) (68, -2.47865945659735338324e+01) (69, -7.56871090049960599799e+01) (70, -1.69856977848277836074e+02) (71, -8.90450333546607339485e+02) (72, -2.27209981181341191814e+01) (0, -2.33399286008989257368e+01) (1, -1.00101857421612891130e+02) (2, -9.11289803028368368132e+01) (3, -1.50000000000000000000e+03) (4, -1.50000000000000000000e+03) (5, -1.50000000000000000000e+03) (6, -1.50000000000000000000e+03) (7, -1.50000000000000000000e+03) (8, -1.20359967967845804537e+01) (9, -8.47948626009636541312e+00) (10, -9.52892930124793657853e+00) (11, -5.46241177723985060766e+00) (12, -6.08313011829637062533e+00) (13, -2.03505189669983721501e+00) (14, -2.15360293997550567013e+00) (15, -5.40417407605690858219e+00) (16, -1.50077101177689456790e+02) (17, -2.48141575796593976122e+01) (18, -2.21736409488151320346e+00) (19, -8.14572069697994116666e+00) (20, -1.49459571701385325326e+01) (21, -1.35528943211147474557e+01) (22, -1.19228529453030091645e+02) (23, -2.95795362839602695715e+01) (24, -3.58849763457771047115e+01) (25, -2.68061736001878703206e+00) (26, -2.40633358556253931226e+01) (27, -2.57699172325490089008e+01) (28, -5.39122260727624578180e+01) (29, -1.39465277092727077957e+01) (30, -1.52252109048387449519e+01) (31, -1.30513680540363150584e+01) (32, -5.22111501702109990219e+02) (33, -2.99031825118890211002e+01) (34, -7.02520416310114512726e+01) (35, -5.08913281544115463362e+01) (36, -3.28904086408936180419e+01) (37, -3.02361792338168626770e+01) (38, -2.14644673401191852236e+01) (39, -2.77402484893751015704e+01) (40, -5.82542999570640134266e+01) (41, -1.39824092987377635033e+00) (42, -1.82755519493486295879e+00) (43, -8.75114324708359880844e+00) (44, -1.80257628792524187133e+01) (45, -3.16547605833369605222e+00) (46, 5.30723535252521060102e+02) (47, -1.61420721160485172163e+01) (48, -5.44208401873268940108e+02) (49, -3.47766547121741069759e+01) (50, -1.26640597947744390694e+03) (51, -5.16130189578834759345e+01) (52, -4.19770629868328967405e+02) (53, -1.50000000000000000000e+03) (54, 1.34526899031443614163e+00) (55, -5.21075505894793423067e+02) (56, -1.46019064213380579531e+03) (57, -7.78170178924759511574e+02) (58, -1.32139491434045623919e+02) (59, -7.14867714101925884052e+01) (60, -1.61752985553628896298e+01) (61, -1.50000000000000000000e+03) (62, -7.71604116504224975870e+02) (63, -1.50000000000000000000e+03) (64, -1.50000000000000000000e+03) (65, 